tree
version=v4
num_class=1
num_tree_per_iteration=1
label_index=0
max_feature_idx=19
objective=binary sigmoid:1
feature_names=Column_0 Column_1 Column_2 Column_3 Column_4 Column_5 Column_6 Column_7 Column_8 Column_9 Column_10 Column_11 Column_12 Column_13 Column_14 Column_15 Column_16 Column_17 Column_18 Column_19
feature_infos=[-1.3352621800643001:4.7113094603991019] [-1.7563110800627615:0.73178340867211544] [-0.56911220353708147:5.6674664814270788] [-0.38016665025669305:29.06027906211942] [-0.27284992614034687:9.0220565915634161] [-0.55191175628362377:6.6360184907442363] [-0.049195934177825494:74.560602231128499] [-0.65849649233054408:4.9166756303416648] [-0.74678159540901601:4.8625526918033755] [-0.48909699046686839:40.511376665367237] [-0.75162752171123659:1.5009061067484109] [-0.098408933818209837:100.15898801001369] [-0.090412478260767995:52.685439734773126] [-0.43916639872222152:59.475648236714555] [-0.47885944801662261:5.3115553979599595] [-0.77409229656499046:4.9509127395640675] [-0.20867991068028233:9.8343462428398443] [-0.49552265328196476:40.636118767505856] [-0.13179462703571476:12.05684910858203] [-0.52005059454757574:7.1966551984811664]
tree_sizes=4863 5574 5573 5605 5611 5591 5589 5590 5599 5609 5602 5624 5609 5602 5605 5601 5593 5625 5612 5604 5594 5586 5588 5596 5591 5587 5616 5596 5612 5588 5600 5616 5601 5608 5616 5600 5602 5607 5594 5607 5606 5616 5605 5612 5595 5601 5615 5610 5607 5610 5616 5619 5612 5637 5618 5638 5619 5640 5603 5639 5606 5620 5639 5603 5618 5623 5579 5636 5624 5596 5633 5623 5629 5598 5630 5625 5625 5592 5628 5612 5601 5629 5615 5634 5618 5617 5582 5618 5642 5624 5643 5608 5642 5633 5582 5622 5617 5617 5597 5616

Tree=0
num_leaves=50
num_cat=0
split_feature=0 2 7 6 5 15 6 7 10 6 14 13 0 6 13 0 11 17 11 7 7 18 6 5 11 7 11 11 14 14 5 6 7 6 7 4 11 3 5 2 7 6 11 14 18 6 6 6 6
split_gain=90755.9 19800.2 12978.2 10906.9 6947.41 5671.28 4243.82 2765.37 2275.06 1667.95 1650.86 924.428 747.891 690.152 979.881 646.118 477.721 565.906 383.42 354.784 349.66 337.808 290.367 285.508 290.357 277.48 266.61 249.072 233.909 226.307 192.261 190.271 782.026 183.269 166.724 151.623 144.087 154.565 142.508 135.014 132.259 124.618 124.22 123.91 122.125 118.985 117.006 112.155 127.592
threshold=-0.75726374351119119 -0.56877262664646089 -0.65848861743199572 -0.048729810288006985 0.021631830632754454 -0.7740300581449453 -0.048729810288006985 -0.65705638515052922 -0.34368836065161529 -0.043510216093212609 -0.21014390911775074 0.063894872398747304 0.93515808196482753 -0.049040559547885984 -0.11091302399398738 3.7035475203218686 -0.088484105211980038 0.83670159868352567 -0.088108123333229885 -0.47863480249865747 -0.65848861743199572 1.0337258815144563 -0.043677383531862013 -0.39649824298214831 -0.097817314622612075 0.1507859871028242 -0.097287060109137971 -0.095986471814599281 -0.30565811312430397 -0.30176136016105859 -0.41593048962572937 -0.048182079775462051 -0.5643930251810847 -0.04626116451089466 -0.56859121465212448 -0.26975143002635588 -0.095986471814599281 -0.38012114034936451 0.55439207906458599 -0.56908747178878716 0.60287070950312149 -0.043625366806756057 -0.09374398553828707 -0.18361072357616334 -0.11690410461510932 -0.034704478708987192 -0.04608846584794473 -0.043046170188865106 -0.043797370634812038
decision_type=2 2 2 2 2 2 2 2 2 2 2 2 2 2 2 2 2 2 2 2 2 2 2 2 2 2 2 2 2 2 2 2 2 2 2 2 2 2 2 2 2 2 2 2 2 2 2 2 2
left_child=8 2 6 15 31 34 -2 -6 -1 12 11 40 13 -7 21 20 17 36 22 35 -3 -15 28 33 -25 -10 -14 38 46 -30 -22 -5 -33 -19 -4 -9 -8 -38 -26 -13 -11 44 -34 -24 -29 -40 -16 48 -21
right_child=1 3 5 4 7 9 16 19 25 10 -12 39 26 14 18 -17 -18 23 -20 47 30 -23 43 24 27 -27 -28 41 29 -31 -32 32 42 -35 -36 -37 37 -39 45 -41 -42 -43 -44 -45 -46 -47 -48 -49 -50
leaf_value=-0.019987610920973162 -0.01986842105263158 0.0067503136762860731 -0.02 0.019888617489008303 0.016633363608840449 -0.019859867652783185 0.018971267832027326 -0.00094049904030710175 0.019574468085106381 0.018496732026143794 0.013159982371088586 0.0018779342723004694 -0.019932285368802902 0.017909604519774011 -0.0097731453096259972 -0.019317556411667585 0.019652355292890666 0.0148014440433213 0.016822429906542057 -0.0038629283489096571 -0.01329464861379755 -0.01270718232044199 -0.01135678391959799 -0.02 0.015978609625668449 -0.015728155339805826 0.01942857142857143 0.01 -0.02 -0.010949288580809924 -0.0044452745610758307 0.01944896681277395 -0.0032886723507917176 -0.0037179487179487183 0.018759124087591242 0.017373737373737375 0.0038209982788296043 0.01714614499424626 -0.0069306930693069299 -0.0097947008247060881 -0.013103448275862069 0.010835003340013361 0.015227272727272728 0.0070825688073394497 -0.0024078624078624077 0.011617312072892938 -0.0023822714681440444 -0.005076023391812865 -0.014091580502215657
leaf_weight=16143.25 380 199.25 11.249999999999998 15352.5 825.75 642.25 1244.25 521 164.5 153 567.25 106.5 1033.75 177 407.75 454.25 1438.25 69.25 53.5 160.5 387.75 45.25 49.75 29.75 935 25.75 17.5 130 300.5 3426.25 669.25 1197.75 205.25 234 822 49.5 145.25 217.25 50.5 1424.75 14.499999999999998 374.25 44 136.25 203.5 109.75 451.25 427.5 507.75
leaf_count=64573 1520 797 45 61410 3303 2569 4977 2084 658 612 2269 426 4135 708 1631 1817 5753 277 214 642 1551 181 199 119 3740 103 70 520 1202 13705 2677 4791 821 936 3288 198 581 869 202 5699 58 1497 176 545 814 439 1805 1710 2031
internal_value=0 0.00878919 0.000176934 0.0151048 0.0172506 -0.00672391 0.0123881 0.00166934 -0.0195825 -0.00903297 -0.00161077 -0.00654305 -0.011528 -0.0100962 -0.00885389 -0.00909676 0.0147539 0.0128716 -0.00979949 -0.00574644 -0.005401 0.011676 -0.010098 0.00949906 0.0109862 0.0147963 -0.0192771 0.0114975 -0.0105948 -0.0116791 -0.00769158 0.0195619 0.0160954 0.000511129 0.0182358 0.000648554 0.0173549 0.0118069 0.0144853 -0.00898286 0.0157612 0.0068739 -2.00602e-05 0.00215054 0.00242879 0.00577223 -0.00589057 -0.00907598 -0.0116349
internal_weight=0 36403.2 15401.2 21002 19291.5 9840.25 5561 2492 16333.5 9007 2266 1698.75 6741 5689.75 5047.5 1710.5 5181 3742.75 4825.25 1666.25 1256.25 222.25 4771.75 2136 1832.75 190.25 1051.25 1803 4585.75 3726.75 1057 16799.5 1447 303.25 833.25 570.5 1606.75 362.5 1095.25 1531.25 167.5 707.75 249.25 186 333.5 160.25 859 1095.75 668.25
internal_count=210947 145613 61605 84008 77166 39361 22244 9968 65334 36028 9064 6795 26964 22759 20190 6842 20724 14971 19301 6665 5025 889 19087 8544 7331 761 4205 7212 18343 14907 4228 67198 5788 1213 3333 2282 6427 1450 4381 6125 670 2831 997 744 1334 641 3436 4383 2673
is_linear=0
shrinkage=0.01


Tree=1
num_leaves=50
num_cat=0
split_feature=1 13 8 5 5 7 8 7 12 6 8 5 6 14 2 8 14 5 6 14 7 19 16 6 6 2 7 14 14 2 16 14 5 5 7 2 5 8 8 19 6 7 4 17 5 5 14 6 6
split_gain=98652.5 17700.4 12621.9 11318.1 4935.8 3989.99 2772.23 1825.28 1016.36 842.631 1602.27 819.776 809.743 1922.9 437.232 415.785 405.179 652.438 372.063 366.749 313.844 254.582 254.174 264.85 236.659 209.24 205.28 197.293 212.182 196.249 165.26 162.022 191.944 177.081 145.427 137.831 134.669 127.262 185.167 123.001 115.922 109.548 106.875 102.59 101.573 198.929 100.735 291.605 196.6
threshold=-1.1675441585408646 0.28610672646216573 -0.74671961479657745 -0.41165669978903291 1.6532205239700042 -0.65848861743199572 -0.74671961479657745 -0.56856518197216799 -0.086407029320733977 -0.048182079775462051 -0.65480109414829224 -0.44980375779965032 -0.043677383531862013 -0.20684666808087229 -0.56905486950628059 -0.65488763246774573 -0.22277394882594881 -0.39649824298214831 -0.043046170188865106 0.23040303473799886 -0.56856518197216799 -0.17733148779785743 -0.028863983114814012 -0.04608831993326664 -0.04626116451089466 -0.56644172767507184 0.51081116089472622 -0.30565811312430397 -0.30176136016105859 -0.56911220306531585 0.20075617952305547 -0.03374245928004619 -0.29938258616908525 -0.29931474318234874 -0.47863480249865747 0.072214655621130969 2.0294294101321246 -0.74671961479657745 -0.65488763246774573 1.623478792404853 1.1731190157084475 -0.65848861743199572 -0.27221120579056279 0.27199876012230795 -0.39649824298214831 -0.39648422050912141 0.18639190862587138 -0.042816955144822789 -0.044799119013108693
decision_type=2 2 2 2 2 2 2 2 2 2 2 2 2 2 2 2 2 2 2 2 2 2 2 2 2 2 2 2 2 2 2 2 2 2 2 2 2 2 2 2 2 2 2 2 2 2 2 2 2
left_child=21 3 16 6 9 15 25 18 -7 -5 37 34 19 30 -12 -4 17 24 -6 27 -16 -1 42 -24 -3 -2 -9 44 -29 -23 -14 32 -30 -34 35 -8 -28 -11 -39 -22 -25 -13 -19 -40 -10 -46 47 48 -18
right_child=1 2 5 4 7 8 11 26 12 10 14 41 13 -15 20 -17 46 22 -20 -21 39 29 23 40 -26 -27 36 28 31 -31 -32 -33 33 -35 -36 -37 -38 38 43 -41 -42 -43 -44 -45 45 -47 -48 -49 -50
leaf_value=-0.019736434687638381 0.019615605806609395 0.014492911158976994 -0.020057702794014119 0.019691027526692252 -0.00099578107995667501 -0.019707359089309408 0.012807489188440262 -0.0039036730528521075 -0.010059929770075927 0.019093809247384037 0.017705557537852804 0.0084059776732547768 -0.009472634741971726 0.011413329214415251 0.015968867041617908 0.015400753311271515 0.0196384955260193 -0.019814180537818898 0.017212386852104983 0.018250965707455422 -0.0030637186763635671 0.017402639578956526 0.019730959074656513 0.0043038658640483949 -0.0079203317836881171 0.0056761902466608682 -0.016257166653704608 -0.019802404897826101 -0.010576817038269041 -0.019804257142626316 0.0019265442068876232 -0.014761528990343687 0.010076481640620456 -0.0078821097870416419 -0.017975611560113392 -0.012044045291714916 -0.0036395872903727763 -0.020014949270854971 0.017130839080175909 -0.01980210830769084 0.017209676680445027 -0.0045638933236931984 0.016887895814684351 0.0052582990856965186 0.015003019635031372 -0.0055116582683519145 0.019406622374642923 0.019323062532903449 0.00563432627238234
leaf_weight=17132.042149975896 350.21864581108093 59.746175155043602 34.498882085084915 15407.726741686463 144.74580639600754 809.6718011200428 27.99788536131382 440.2415933161974 382.99077621102333 2045.0706556141376 140.23946808278561 71.248201489448547 1657.7142639011145 655.47465923428535 86.494672298431396 798.20483481884003 136.99101747572422 7.9992025643587104 499.46784324944019 44.246752455830574 514.74170106649399 32.747337654232979 179.23807959258556 546.97328823804855 222.74648061394691 155.49741724133492 368.9819421172142 296.22044308483601 2234.683605119586 24.997547224164009 137.74859361350536 839.97460269927979 88.747374296188354 143.99561312794685 967.17265118658543 109.99396309256554 109.7492501437664 16.249277830123901 316.72649163007736 47.995204925537109 79.744506239891052 757.49277557432652 974.1826810836792 94.495036900043488 53.749433144927025 391.99898135662079 1017.1552051156759 701.69156281650066 373.7371581196785
leaf_count=68535 1401 239 138 61637 579 3239 112 1761 1532 8181 561 285 6631 2622 346 3193 548 32 1998 177 2059 131 717 2188 891 622 1476 1185 8939 100 551 3360 355 576 3869 440 439 65 1267 192 319 3030 3897 378 215 1568 4069 2807 1495
internal_value=0 0.00951404 0.000147581 0.0148309 0.0172843 -0.00686741 -0.00551624 0.000215135 -0.00910587 0.0187135 0.0140963 -0.0109674 -0.0078668 -0.00324627 0.0016933 0.0139317 0.0141278 0.0109426 0.0131213 -0.0103965 -0.00176548 -0.0196658 0.0131737 0.00901168 -0.00318001 0.0153295 -0.00883226 -0.0106825 -0.0116943 0.00129591 -0.00859809 -0.0109681 -0.00967671 -0.00103431 -0.0166054 -0.00700179 -0.0133646 0.0180566 0.0130943 -0.00449132 0.00594602 -0.00344885 0.016589 0.0144026 -0.00628306 -0.00303795 0.017086 0.0151391 0.00939062
internal_weight=0 35542.7 12870.1 22672.5 20232.9 8569.92 2439.62 1563.19 7737.22 18669.7 3262.01 1933.91 6927.55 2450.94 789.471 832.704 4300.21 2070.63 644.214 4476.61 649.232 17189.8 1788.14 805.956 282.493 505.716 918.973 4432.36 3603.62 57.7449 1795.46 3307.4 2467.43 232.743 1105.16 137.992 478.731 2472.54 427.471 562.737 626.718 828.741 982.182 411.222 828.739 445.748 2229.57 1212.42 510.728
internal_count=210947 142181 51483 90698 80939 34281 9759 6253 30950 74686 13049 7736 27711 9804 3158 3331 17202 8283 2577 17907 2597 68766 7153 3224 1130 2023 3676 17730 14415 231 7182 13230 9870 931 4421 552 1915 9891 1710 2251 2507 3315 3929 1645 3315 1783 8919 4850 2043
is_linear=0
shrinkage=0.01


Tree=2
num_leaves=50
num_cat=0
split_feature=1 17 8 5 5 7 8 8 11 11 5 11 17 7 7 8 18 5 11 5 14 14 11 19 3 14 7 2 14 14 0 15 11 3 8 7 5 5 8 7 3 3 5 19 7 5 7 5 5
split_gain=96715.3 17055.7 12084.7 10917.5 4809.17 3832.76 3081.28 2791.04 994.327 819.186 815.77 815.621 788.051 664.604 440.494 404.498 371.208 531.798 364.613 356.243 348.577 1959.93 281.978 251.003 243.478 232 229.427 207.977 197.207 305.093 170.217 165.815 156.662 150.169 147.148 143.887 139.48 176.334 128.286 115.592 114.957 113.945 111.062 110.529 104.817 104.329 284.268 102.112 93.6186
threshold=-1.1675441585408646 0.46871991555556175 -0.74671961479657745 -0.41165669978903291 0.10379714504191043 -0.65848861743199572 -0.65480109414829224 -0.74671961479657745 -0.097181814097205527 -0.088108123333229885 -0.44980375779965032 -0.088484105211980038 0.22528058016071481 -0.65318649845448573 0.51081116089472622 -0.65488763246774573 -0.13179456807339759 -0.37727295417986434 -0.095986471814599281 -0.39649824298214831 -0.03374245928004619 -0.19133794586330161 -0.097817314622612075 -0.34881977374541545 0.26592939991206371 -0.22277394882594881 -0.56856518197216799 -0.56644172767507184 -0.30565811312430397 -0.30176136016105859 3.7035475203218686 -0.76861831893104848 -0.09096549027576746 -0.380105843437824 -0.74671961479657745 -0.47863480249865747 0.55439207906458599 0.5554297375715368 0.54042773955216361 -0.65848861743199572 -0.38012698192961936 -0.3801200899305977 -0.41592342678172467 -0.17733148779785743 -0.56856518197216799 -0.1823621176250674 -0.5643930251810847 2.0294294101321246 -0.22678094155702636
decision_type=2 2 2 2 2 2 2 2 2 2 2 2 2 2 2 2 2 2 2 2 2 2 2 2 2 2 2 2 2 2 2 2 2 2 2 2 2 2 2 2 2 2 2 2 2 2 2 2 2
left_child=16 3 11 7 12 15 24 27 -7 20 30 18 45 -14 26 -4 17 -1 19 42 21 23 -21 28 -6 41 -8 -2 -10 -30 33 -15 -27 -9 -26 -25 -24 -38 43 -12 -34 -20 -3 -28 -31 -5 -47 -16 -22
right_child=1 2 5 4 6 8 14 10 9 -11 39 -13 13 31 47 -17 -18 -19 25 22 48 -23 36 35 34 32 38 -29 29 44 -32 -33 40 -35 -36 -37 37 -39 -40 -41 -42 -43 -44 -45 -46 46 -48 -49 -50
leaf_value=-0.019620322845186975 0.019433723901426714 0.013436691464423799 -0.019856858836939828 0.019353593012527044 0.018961944941741866 -0.019510068143353303 0.011377217987438451 0.012578141227719497 -0.0068878150824452072 0.015037718452764387 0.0086301218090163792 0.01930128873195271 0.017678158640013909 0.019376400330299092 -0.014993306282748337 0.015129388074904252 -0.019610776914301638 0.019174310466458865 -0.0038539819754853152 -0.019774560047403463 -0.014760808838250301 0.010180515418840632 0.017004894443985039 0.0029713681550031473 0.014970324445572293 0.014974665306874501 -0.0055678072356688934 0.0056195499712815454 -0.019670408333688879 -0.0072698289464766764 -0.019419861926038604 -0.002710857924176093 -0.0006205528431436684 -0.012835418466976349 0.0027299609419854771 -0.0072460114511796502 -0.010004998948544482 0.013280434252579184 0.020091521957282529 -0.0045141700209846633 0.012587918000087392 0.0060117942178861961 -0.0067576536107755774 0.014352791322305341 -0.011526664261445042 0.018783302882345559 0.00098487913606176052 -0.0041207713348113953 0.017669407159550472
leaf_weight=85.467269331216812 364.36610381305218 36.74113230407238 34.497369453310966 16639.567402422428 787.5029940456152 818.68828256428242 118.483628064394 24.745139971375465 1293.9182375073433 152.97107346355915 73.243592202663422 1678.8944941908121 425.61212964355946 37.737188249826431 471.64709414541721 785.58408932387829 17039.034248039126 60.239997878670692 258.48640865087509 22.745986193418503 825.36693012714386 565.67584973573685 1136.4528578519821 228.23156152665615 213.69500632584095 305.94053727388382 585.97816713154316 155.49407078325748 400.87806661427021 795.16733658313751 698.00768458843231 342.21772199869156 167.23791582882404 385.16510683298111 181.73743276298046 347.96759440004826 43.748131260275841 126.72670783102512 21.748723983764648 772.97951476275921 108.73179204761982 213.97297686338425 105.2442801296711 29.242817640304565 2122.2840668410063 399.3591669946909 115.74305520951748 105.74797651171684 8.9985358268022519
leaf_count=342 1458 147 138 66584 3151 3276 474 99 5176 612 293 6718 1703 151 1887 3143 68183 241 1034 91 3302 2263 4547 913 855 1224 2344 622 1604 3181 2793 1369 669 1541 727 1392 175 507 87 3092 435 856 421 117 8490 1598 463 423 36
internal_value=0 0.0094209 6.53825e-05 0.0145512 0.0169486 -0.0068759 0.00399978 -0.0052911 -0.00910327 -0.00783946 -0.0107694 0.0138991 0.0187625 0.00909613 -0.00642626 0.0136577 -0.0194749 -0.00358139 0.0103085 0.0135243 -0.00837062 -0.00749474 0.0151321 -0.0094218 0.0157471 0.00582001 -0.00140038 0.0153018 -0.0101992 -0.0114904 -0.0164161 -0.000517148 0.0100467 -0.0113013 0.00934476 -0.00319892 0.0157396 0.00730481 -0.00377715 -0.00337649 0.00458357 0.000614147 -0.00153202 -0.00462094 -0.0103664 0.0192164 0.014784 -0.013002 -0.0144111
internal_weight=0 35535.2 12585.2 22950 20476 8380.23 2515.78 2474 7560.15 6741.46 1954.14 4204.92 17960.2 805.567 1332.85 820.081 17184.7 145.707 2526.03 1471.66 6588.49 5754.12 1329.67 5188.45 1182.94 1054.37 755.453 519.86 4612.25 3318.33 1107.92 379.955 581.91 409.91 395.432 576.199 1306.93 170.475 636.97 846.223 275.97 472.459 141.985 615.221 2917.45 17154.7 515.102 577.395 834.365
internal_count=210947 142181 50350 91831 81933 33526 10065 9898 30245 26969 7818 16824 71868 3223 5332 3281 68766 583 10106 5888 26357 23019 5320 20756 4733 4218 3022 2080 18451 13275 4433 1520 2328 1640 1582 2305 5229 682 2548 3385 1104 1890 568 2461 11671 68645 2061 2310 3338
is_linear=0
shrinkage=0.01


Tree=3
num_leaves=50
num_cat=0
split_feature=1 13 7 5 5 11 7 7 11 6 7 6 11 2 6 11 2 6 5 5 18 5 6 18 6 6 11 7 11 5 5 1 19 5 6 19 7 5 6 6 7 7 7 17 7 6 6 12 12
split_gain=94832.8 17023.8 12126.1 10881.6 4750.93 3556.77 2642.03 1753.64 1047.25 810.885 1501.48 702.716 691.457 689.942 687.167 886.239 634.305 500.584 496.587 383.289 364.052 521.418 361.792 339.114 355.693 226.848 202.331 197.644 192.83 342.782 218.847 146.574 134.046 129.69 122.87 105.062 122.591 127.489 103.857 142.407 103.122 90.5687 176.632 100.772 77.8767 75.7832 70.846 67.9945 67.762
threshold=-1.1675441585408646 0.28610672646216573 -0.65848861743199572 -0.41165669978903291 1.6532205239700042 -0.088108123333229885 -0.56856518197216799 -0.56856518197216799 -0.097181814097205527 -0.048182079775462051 -0.56856518197216799 -0.046698360708764756 -0.088484105211980038 -0.5690289058309147 -0.043677383531862013 -0.093661283308817733 -0.56699288731042652 0.057108121211911729 -0.44980375779965032 -0.39649824298214831 -0.13179456807339759 -0.37727295417986434 -0.043046170188865106 -0.11281122361465727 -0.04608831993326664 -0.04626116451089466 -0.09570003127307361 0.51081116089472622 -0.091103545500476349 -0.29938258616908525 -0.29931474318234874 0.71356618928481397 1.623478792404853 2.0294294101321246 -0.044177839134557036 -0.17733148779785743 -0.56856518197216799 -0.39649824298214831 -0.03485803491879965 -0.034704478708987192 -0.56859121465212448 -0.65705638515052922 -0.56859121465212448 0.27199876012230795 -0.65848861743199572 -0.043556311524288016 -0.048817214074624478 -0.032784287807229064 -0.04284282308295221
decision_type=2 2 2 2 2 2 2 2 2 2 2 2 2 2 2 2 2 2 2 2 2 2 2 2 2 2 2 2 2 2 2 2 2 2 2 2 2 2 2 2 2 2 2 2 2 2 2 2 2
left_child=20 3 12 6 9 8 16 22 -4 -5 41 -10 19 -12 28 38 -2 40 34 25 21 -1 -6 26 -25 -3 -21 -9 29 35 -31 -26 -15 -29 46 36 37 -13 -16 -40 -17 -11 -43 -44 -18 -45 -8 -28 -38
right_child=1 2 5 4 7 -7 18 27 11 10 13 14 -14 32 15 17 44 -19 -20 23 -22 -23 -24 24 31 -27 47 33 -30 30 -32 -33 -34 -35 -36 -37 48 -39 39 -41 -42 42 43 45 -46 -47 -48 -49 -50
leaf_value=-0.019433411145980156 0.018528534858901175 0.015039897394163282 -0.019279763802407281 0.019315559956225796 -0.0010623905584406462 0.018037147539409621 -0.013595654497884689 -0.0038281231883346544 0.018059021291895721 0.018655490325004999 0.018007440613388607 -0.010567231389625302 0.019015030138025583 -0.002052573973399897 -0.0043889049200433522 -0.020138947170789786 0.0053476739786529979 -0.0077741023193198958 -0.0054172690214869361 0.016878932846260953 -0.019424138074290706 0.018987335226411425 0.016894107321158317 0.019372482464645832 -0.0070491567234040519 -0.0029724287354907708 0.017251781484072189 -0.015952085032161657 -0.014454118358603135 0.009487397901950476 -0.0055808027310111329 0.0052272619314118829 -0.019481598533262773 -0.0035691088988723907 0.010091511869396884 0.0016907405515361673 -0.0046468996379492415 -0.0030067803756392477 -0.014527749658383998 -0.0068474628838867332 0.010093938639055855 -0.019926158671431514 0.017409971782963964 0.00021663765318598682 -0.0030799844514857689 0.017589987342618782 -0.019238756549675003 0.0087388688171998567 -0.012180644679620099
leaf_weight=85.426594510674477 384.96051414310932 91.96018086373806 826.29784098267555 15395.885576114058 144.73852847516537 534.13172982633114 327.84342923760414 440.219237819314 106.94168071448803 1966.2169201523066 199.86664080619812 536.62224005162716 1492.3006060272455 551.44651791453362 547.13656443357468 11.497762039303778 209.97933107614517 229.96641181409359 577.7141714990139 1159.5575084388256 17030.766923397779 60.224939078092575 499.20489794015884 160.64263480901718 124.98391009867191 291.71493707597256 111.44807747006416 368.81160701811314 821.42778895795345 139.24154569208622 313.176324442029 438.36907593905926 47.965473055839539 109.74546584486961 16.490109458565712 72.23901554942131 126.47525535523891 381.67049789428711 391.1660338640213 630.64428201317787 601.59056390821934 14.996796399354933 370.75302785634995 69.740915060043335 229.47033126652241 39.23147901892662 692.20008815824986 593.33708636462688 2130.8811156749725
leaf_count=342 1541 368 3308 61637 579 2138 1312 1761 428 7871 800 2147 5974 2206 2189 46 840 920 2311 4641 68183 241 1998 643 500 1167 446 1476 3287 557 1253 1754 192 439 66 289 506 1527 1565 2523 2407 60 1484 279 918 157 2771 2374 8526
internal_value=0 0.00932994 0.000143077 0.0145464 0.0169532 -0.00693405 -0.00540816 0.000204535 -0.00862948 0.0183562 0.0138257 -0.00737956 0.0134611 0.00191768 -0.00777191 -0.00346157 0.00915672 0.00480762 -0.0128466 0.0106723 -0.0192895 -0.00354695 0.012858 0.012055 0.00624656 0.00134481 0.0143106 -0.00866394 -0.0100711 -0.00909818 -0.000943233 0.00250365 -0.00344726 -0.0131123 -0.0169873 -0.0102341 -0.0105054 -0.00742488 -0.00790492 -0.0097876 0.00952696 0.0176932 0.0138687 0.0149252 0.000946948 0.00647127 -0.0174251 0.010085 -0.0117585
internal_weight=0 35522.9 12865.4 22657.5 20218.8 8401.11 2438.66 1562.72 7866.97 18656.1 3260.22 7040.68 4464.31 799.279 6933.74 2412 824.41 843.055 1614.25 2972.01 17176.4 145.652 643.943 2588.34 723.996 383.675 1864.34 918.776 4521.73 3700.31 452.418 563.353 599.412 478.557 1036.53 3247.89 3175.65 918.293 1568.95 1021.81 613.088 2460.94 494.722 479.725 439.45 108.972 1020.04 704.785 2257.36
internal_count=210947 142181 51483 90698 80939 33616 9759 6253 31478 74686 13049 28170 17867 3198 27742 9650 3299 3373 6460 11893 68766 583 2577 10358 2897 1535 7461 3676 18092 14805 1810 2254 2398 1915 4149 12995 12706 3674 6277 4088 2453 9851 1980 1920 1758 436 4083 2820 9032
is_linear=0
shrinkage=0.01


Tree=4
num_leaves=50
num_cat=0
split_feature=1 13 8 6 6 8 7 18 11 7 11 11 6 14 0 8 7 18 6 11 7 8 6 11 3 8 14 14 14 11 6 7 8 19 3 6 3 6 17 6 6 6 6 6 6 6 6 6 11
split_gain=93002.5 16697.6 11902.3 9852.26 4011.14 5965.21 3767.88 1361.64 977.42 934.23 815.076 787.79 643.683 1516.74 618.3 397.946 360.275 357.103 489.829 355.559 346.438 328.848 328.371 273.931 270.794 241.107 237.056 189.622 204.321 176.604 168.269 155.228 148.243 147.807 145.327 208.786 139.438 139.066 131.234 129.857 200.608 111.488 218.555 113.416 108.596 101.254 239.74 97.203 92.944
threshold=-1.1675441585408646 0.28610672646216573 -0.74671961479657745 -0.048729810288006985 -0.048182079775462051 -0.65480109414829224 -0.65848861743199572 -0.12875584096877532 -0.096582231498368448 0.51081116089472622 -0.088108123333229885 -0.088484105211980038 -0.043677383531862013 -0.1992659244124976 3.7035475203218686 -0.65488763246774573 -0.56856518197216799 -0.13179456807339759 -0.049040559547885984 -0.095986471814599281 -0.65848861743199572 -0.74671961479657745 -0.04608846584794473 -0.097817314622612075 -0.38013862394277936 -0.65488763246774573 -0.25047170128018953 -0.30565811312430397 -0.30176136016105859 -0.091103545500476349 -0.048735580551166773 0.15085518856213195 0.54042773955216361 -0.34881977374541545 -0.38011334186514373 -0.045977675442858322 0.098722148646734995 -0.04626116451089466 0.27199876012230795 -0.03485803491879965 -0.034704478708987192 -0.044991934518647546 -0.044983243388563278 -0.046698360708764756 -0.04319957217686126 -0.04608846584794473 -0.046068460939253986 -0.043625366806756057 -0.097817314622612075
decision_type=2 2 2 2 2 2 2 2 2 2 2 2 2 2 2 2 2 2 2 2 2 2 2 2 2 2 2 2 2 2 2 2 2 2 2 2 2 2 2 2 2 2 2 2 2 2 2 2 2
left_child=17 3 11 14 7 21 15 -5 -8 16 12 19 27 33 20 -4 -7 18 -1 22 -2 -6 37 -24 31 -23 -21 45 -29 41 -22 -18 -26 -14 35 -28 38 -3 -27 -25 -41 43 -43 -30 -11 -10 -47 -37 -17
right_child=1 2 6 4 5 9 8 -9 10 44 -12 -13 13 -15 -16 48 24 -19 -20 26 30 25 23 39 32 36 34 28 29 -31 -32 -33 -34 -35 -36 47 -38 -39 -40 40 -42 42 -44 -45 -46 46 -48 -49 -50
leaf_value=-0.019246711610812945 0.0068847452264320791 0.012881665927649378 -0.019707975001720203 0.019131955746765194 0.018427792746181552 0.012955693196898772 -0.019113672693709269 -0.018145494222177889 -0.0097095857330151102 -0.015399861080091153 0.014955543864973338 0.018945704738915912 -0.0094769044844412384 0.010553384714788432 -0.018612665957890046 -0.020051068057131933 0.013696280130590566 -0.019242848499563477 0.017873870335160115 -0.00017833987193066213 -0.012525288759587612 -0.019909390283151834 -0.01954048042280291 0.016682264071377385 -0.0047165675012576583 0.017944488776743945 0.019281919580048976 -0.019331135654758944 0.020019448242613369 -0.014747802661581969 -0.0042679510846069194 -0.012953095934074734 0.019981864766776054 -0.00066147526454977197 0.017701007725640511 0.00026137629267376615 0.0043833674506355263 -0.0078717547916534805 0.0055713303918304745 -0.010033572969811808 0.013968277144489775 0.0094924746680438103 -0.0079838826115858959 -0.010825745220589824 -0.0052938495359248243 0.014995054509519981 -0.0058485092284309391 0.01132688735725537 0.015318923055666095
leaf_weight=83.871048524975777 205.21131911873817 48.463834270834923 34.489987820386887 15388.446049451828 2775.0052025467157 195.12159141898155 828.01046481728554 98.615403175354004 395.61605778336525 616.88809797167778 156.36257039010525 1727.7585882246494 1554.50446395576 554.49872341752052 453.87831307947636 7.4998848140239707 145.59667909145355 17019.359057590365 61.698223039507866 409.16709797084332 390.71533243358135 24.992481291294098 22.736675217747688 1157.5737516433001 870.41835524141788 332.86159138381481 105.63724359869957 295.89337408542633 11.999223366379736 799.66155909001827 669.94408997893333 25.718111589550972 24.999677494168282 216.71546831727028 163.12800976634026 277.45359374582767 182.1956372410059 96.737081661820412 115.45305466651917 47.745510712265968 128.65368595719337 81.496597096323967 586.78597918152809 1821.2192674875259 128.47352458536625 64.995868697762489 365.45868557691574 111.20157563686371 790.09726238250732
leaf_count=336 821 194 138 61648 11115 781 3317 395 1583 2470 626 6921 6220 2219 1818 30 583 68183 247 1637 1564 100 91 4635 3482 1333 423 1185 48 3201 2680 103 100 867 653 1110 729 387 462 191 515 326 2348 7288 514 260 1462 445 3163
internal_value=0 0.00924104 0.000141694 0.0144093 0.0163002 0.00891136 -0.00667136 0.0188946 -0.00884697 -0.00478126 -0.00761588 0.0137247 -0.00813883 -0.00387983 -0.00859903 0.0135483 0.000462092 -0.0191095 -0.00351349 0.0102126 -0.00500863 0.016923 0.013348 0.0148777 -0.00182318 0.0105527 0.00579749 -0.0103782 -0.0113705 -0.0106569 -0.00730971 0.00969562 -0.004027 -0.0083983 0.00951675 0.00681576 0.0117601 -0.000944868 0.0147581 0.0154643 0.00747176 -0.00934921 -0.00585265 -0.0106238 -0.0136579 -0.00605764 -0.00270127 0.00342743 0.0149863
internal_weight=0 35506.1 12861.6 22644.5 20924.8 5437.72 8565.31 15487.1 7733.22 2007.22 6905.21 4296.26 6748.85 2325.72 1719.75 832.087 1261.85 17164.9 145.569 2568.5 1265.87 3430.51 1501.91 1356.71 1066.73 655.503 1066.59 4423.13 3597.06 3301.16 1060.66 171.315 895.418 1771.22 657.42 494.292 630.51 145.201 448.315 1333.97 176.399 2501.5 668.283 1833.22 745.362 826.071 430.455 388.655 797.597
internal_count=210947 142181 51483 90698 83815 21772 34281 62043 30950 8033 27633 17202 27007 9306 6883 3331 5049 68766 583 10281 5065 13739 6013 5432 4268 2624 4268 17701 14396 13211 4244 686 3582 7087 2631 1978 2524 581 1795 5341 706 10010 2674 7336 2984 3305 1722 1555 3193
is_linear=0
shrinkage=0.01


Tree=5
num_leaves=50
num_cat=0
split_feature=1 13 8 5 5 15 11 1 14 8 11 6 8 5 15 2 18 5 2 15 11 5 14 14 11 6 6 3 19 6 5 6 8 11 14 11 5 6 6 6 8 8 19 5 6 6 6 8 6
split_gain=91186 16482.5 11698.7 10326.1 4635.63 2557.89 1622.87 1477.04 1933.94 1437.66 786.039 756.76 1426.01 662.34 546.653 384.483 377.544 508.328 359.995 354.176 345.839 352.822 329.121 482.889 274.313 234.719 231.701 296.942 169.426 157.809 144.078 142.288 142.151 139.516 137.324 133.032 132.13 228.574 130.484 405.683 124.078 183.91 115.963 113.29 110.064 109.335 286.374 102.799 90.1596
threshold=-1.1675441585408646 0.28610672646216573 -0.74671961479657745 -0.41165669978903291 1.6532205239700042 -0.68173880231000961 -0.088108123333229885 0.71356618928481397 -0.18690329091502336 -0.74671961479657745 -0.088484105211980038 -0.048182079775462051 -0.65480109414829224 -0.44980375779965032 -0.7740300581449453 -0.56905486950628059 -0.13179456807339759 -0.37727295417986434 -0.56699288731042652 0.24172512553101119 -0.095986471814599281 -0.39649824298214831 -0.30565811312430397 -0.30176136016105859 -0.097817314622612075 -0.044799119013108693 -0.04629526910523158 -0.38012698192961936 1.623478792404853 -0.04626116451089466 2.0294294101321246 -0.036086761745309455 -0.65488763246774573 -0.096582231498368448 -0.25438466736505644 -0.0913842618825806 0.55439207906458599 -0.034704478708987192 -0.04608846584794473 -0.04608831993326664 -0.74671961479657745 -0.65488763246774573 -0.17733148779785743 -0.45037851573810134 -0.043625366806756057 -0.044991934518647546 -0.044983243388563278 -0.65488763246774573 -0.043211092000999422
decision_type=2 2 2 2 2 2 2 2 2 2 2 2 2 2 2 2 2 2 2 2 2 2 2 2 2 2 2 2 2 2 2 2 2 2 2 2 2 2 2 2 2 2 2 2 2 2 2 2 2
left_child=16 3 10 5 11 18 7 25 14 48 20 -5 40 43 47 -14 17 -1 -2 31 21 29 32 -24 -23 -4 -22 44 -17 -3 -21 -11 -16 -27 -29 -35 -26 -38 -34 -40 -13 -42 45 -7 -28 -25 -47 -9 -6
right_child=1 2 6 4 9 13 -8 8 -10 19 -12 12 15 -15 22 28 -18 -19 -20 30 26 24 23 42 36 33 27 34 -30 -31 -32 -33 38 35 -36 -37 37 -39 39 -41 41 -43 -44 -45 -46 46 -48 -49 -50
leaf_value=-0.019084089552357117 0.01852309961041761 0.012894826620492699 0.017514104050639263 0.018957740181109621 -0.0022175105309851324 -0.011895780479620054 0.016271414501306182 -0.019494882830282011 0.010954911687939765 -0.0026292661980538037 0.018788078382779124 0.018391066794968484 0.017065073076311631 -0.0039258526559064243 -0.019611881773887927 0.00014816921391610675 -0.019066717308541904 0.018526046333372022 0.003058287280807166 -0.014460857531303693 0.019138772294111702 -0.019364651539446356 -0.019238739104945758 -0.0099524491751028388 0.016523735782616584 -0.01908604413383725 -0.0035643189033639114 0.0040888243682227843 -0.019165152678465538 -0.0094099440119097093 -0.0023502830591090426 0.0098052464217918064 -0.0081029465834583352 0.01841972724386182 0.015047530993656513 -0.013821907269324217 -0.011168540398723517 0.014181008371353646 0.019042370301605195 -0.003361702553019299 -0.019530266293413246 0.013813689491373111 0.0048558804811457698 -0.018739979016034455 0.0076442739807820485 0.01090589438515042 -0.0074147710249290689 0.01101022754047786 0.018219817722131926
leaf_weight=83.803901523351669 366.99787585437298 47.945296198129654 20.988005220890045 15359.571876600385 22.98687769472599 370.57236233353615 298.78533625602722 11.741428554058073 659.01359663903713 523.37785592675209 1723.1201220750809 2056.8183673769236 138.02743646502495 715.36732688546181 56.22691847383976 598.07523530721664 16993.684991925955 62.915457233786583 255.19137722253799 402.2020770907402 115.80423863232136 23.224115580320358 430.79165802896023 1852.9515958577394 1171.6128229349852 822.59018038213253 396.71742744743824 212.18254370987415 49.155317902565002 93.733278781175613 129.98346827924252 111.65871833264828 439.23415677249432 12.99168014526367 247.99412640929222 855.75805960595608 48.746693402528763 131.59356243908405 87.167782187461853 1110.319065913558 17.236978322267532 409.89037795364857 68.479078382253647 696.25626675784588 112.43723548948765 90.235152140259743 1566.3909516334534 186.76745174825191 354.09159128367901
leaf_count=336 1471 192 84 61584 92 1484 1197 47 2638 2094 6908 8245 553 2862 225 2393 68138 252 1021 1611 464 93 1726 7417 4694 3298 1587 849 197 375 520 447 1758 52 993 3427 195 527 349 4443 69 1642 274 2791 450 361 6269 748 1419
internal_value=0 0.00916125 0.000141792 0.0143129 0.0166477 -0.00527624 -0.00662444 -0.00745148 -0.00529242 -1.5753e-06 0.0135494 0.0180279 0.0136591 -0.0113705 -0.00710711 0.00191274 -0.0189288 -0.0029563 0.0121802 -0.00548563 0.0100802 0.0131638 -0.00767505 -0.00923634 0.0147118 -0.0157221 0.00576988 0.00417272 -0.00131862 -0.00186181 -0.0115029 -0.000442901 -0.00397797 -0.0161345 0.00999459 -0.0133398 0.0152972 0.00732892 -0.00344089 -0.00173086 0.0173726 0.0124681 -0.00803207 -0.0163626 -0.00108911 -0.00828354 -0.00641686 0.00920591 0.0169739
internal_weight=0 35473 12895.5 22577.5 20173.1 2404.39 8570.43 8271.65 6559.32 1544.3 4325.11 18628.8 3269.2 1782.2 5900.31 785.258 17140.4 146.719 622.189 1167.22 2601.99 1516.86 5701.8 4008.85 1375.18 1712.33 1085.14 969.331 647.231 141.679 532.186 635.037 1692.95 1691.34 460.177 868.75 1351.95 180.34 1636.72 1197.49 2483.95 427.127 3578.06 1066.83 509.155 3509.58 1656.63 198.509 377.078
internal_count=210861 142135 51640 90495 80866 9629 34313 33116 26255 6183 17327 74683 13099 7137 23617 3143 68726 588 2492 4672 10419 6076 22822 16047 5509 6861 4343 3879 2590 567 2131 2541 6775 6777 1842 3479 5416 722 6550 4792 9956 1711 14321 4275 2037 14047 6630 795 1511
is_linear=0
shrinkage=0.01


Tree=6
num_leaves=50
num_cat=0
split_feature=1 17 8 5 5 7 15 7 6 7 11 11 11 2 5 6 14 8 2 6 11 5 11 6 3 19 7 11 5 5 2 6 5 6 0 3 19 14 19 6 8 8 8 8 7 5 5 5 11
split_gain=89454.9 15928.7 11191.6 10005.7 4460.21 3575.1 2589.53 1582 992.196 1831.87 924.207 775.252 747.863 663.84 646.999 622.22 1483.4 375.339 357.915 349.603 341.523 340.55 267.757 230.698 271.074 204.433 204.282 184.709 233.818 305.015 162.125 150.987 134.982 220.289 130.277 125.21 123.878 123.309 123.176 104.827 103.74 102.558 141.632 99.9629 99.6788 96.3063 93.4454 92.9971 92.3993
threshold=-1.1675441585408646 0.46871991555556175 -0.74671961479657745 -0.41165669978903291 1.6532205239700042 -0.65848861743199572 -0.68173880231000961 -0.56856518197216799 -0.048182079775462051 -0.56856518197216799 -0.097817314622612075 -0.088484105211980038 -0.088108123333229885 -0.56905486950628059 -0.44980375779965032 -0.043677383531862013 -0.1992659244124976 -0.65488763246774573 -0.56699288731042652 -0.043046170188865106 -0.095986471814599281 -0.39649824298214831 -0.097817314622612075 -0.046249408402285919 -0.38012698192961936 -0.17733148779785743 1.1479876744654878 -0.091103545500476349 -0.29938258616908525 -0.29931474318234874 -0.56911220306531585 -0.04626116451089466 0.55439207906458599 -0.034704478708987192 3.7035475203218686 -0.38015965010703873 1.623478792404853 -0.25438466736505644 -0.34881977374541545 -0.043625366806756057 -0.72643941538040702 -0.74671961479657745 -0.65488763246774573 1.5687791339126915 -0.65848861743199572 -0.43046978008239983 2.0294294101321246 -0.40158058362132548 -0.097817314622612075
decision_type=2 2 2 2 2 2 2 2 2 2 2 2 2 2 2 2 2 2 2 2 2 2 2 2 2 2 2 2 2 2 2 2 2 2 2 2 2 2 2 2 2 2 2 2 2 2 2 2 2
left_child=25 3 11 6 8 17 18 19 -5 41 -7 20 15 -11 34 27 35 -4 -2 -6 21 31 -23 -22 39 -1 43 28 38 -30 -27 -3 -24 -34 -8 -17 40 -26 45 -25 -15 -10 -43 -9 -16 -12 -28 -47 -19
right_child=1 2 5 4 7 10 14 26 9 13 12 -13 -14 36 44 16 -18 48 -20 -21 23 22 32 24 37 30 46 -29 29 -31 -32 -33 33 -35 -36 -37 -38 -39 -40 -41 -42 42 -44 -45 -46 47 -48 -49 -50
leaf_value=-0.018822398907483037 0.018310255676824573 0.012776790586713372 -0.01939102299664703 0.01878725346822897 -0.001560636513425005 -0.018847107906765893 -0.011468395347147201 -0.0045672605393554076 0.018219637644817713 0.016935937586754882 -0.0014380625961519973 0.018615921574406905 0.014305729675877352 0.016322361149608791 0.0081502141228822836 0.0050156465905924971 0.010514204965760126 -0.019672340200212485 0.0030277378700133461 0.016238069177113339 0.018969605114243716 -0.019185065761917849 0.016330312531800135 -0.0035261491238128967 0.0040542293775975378 0.014841217929096127 -0.015411791331981922 -0.01470355762092161 0.0099187295473017051 -0.0083334484194374642 -0.018896550901375282 -0.0093155501268995557 -0.011214740123544746 0.013818187049525119 -0.018772727488948919 -0.0089287329712706698 -0.018991182107952032 0.014605295405165789 -0.0045150794485881328 0.0074614936944527388 -0.0033563062649885366 -0.019385475595308555 0.014067641913708609 0.019934617095603339 -0.0051069285118998473 -0.013484918563094 -0.0039320684483463196 -0.0097217227420899541 0.015034538689691216
leaf_weight=17065.061992377043 383.6153899282217 46.424938604235649 33.712850227952003 15344.040050387383 141.72672179341316 815.01524825394154 377.65984298288822 481.34969091415405 2057.1712282598019 199.76174192130566 102.41090729832649 1671.8519833832979 152.69362805783749 27.947436228394508 61.96612349152565 66.990105330944061 546.44530455768108 7.7477499395608893 255.18855911493301 498.57944275438786 113.96297614276409 23.207177013158798 1147.3065183907747 393.461266502738 210.41206361353397 32.407084047794342 349.03578436374664 783.18273209035397 137.23470751941204 275.07485528290272 25.413037821650505 92.719136610627174 48.495013818144798 127.78096422553062 690.84984387457371 1661.1492863893509 49.109777525067329 233.88965578377247 332.28069397807121 111.41666078567505 646.29411134123802 12.984692275524138 499.56162132322788 17.247631013393402 669.35855481028557 1140.6533477306366 88.985762894153595 1547.7142853289843 771.80571627616882
leaf_count=68494 1539 186 135 61584 567 3271 1513 1926 8254 801 410 6709 612 112 248 268 2188 31 1021 1999 457 93 4600 1574 842 130 1399 3138 549 1101 102 371 194 512 2772 6649 197 937 1330 446 2586 52 2002 69 2678 4568 356 6197 3092
internal_value=0 0.00907622 4.67097e-05 0.0140528 0.0163398 -0.00664566 -0.00509173 0.000184533 0.0176923 0.0128819 -0.00878858 0.013324 -0.00757334 0.000798934 -0.0112308 -0.00808004 -0.00384709 0.0132768 0.0122052 0.0122985 0.00985328 0.0129494 0.0144881 0.00552593 0.00391182 -0.0187588 -0.00809699 -0.0103095 -0.00933615 -0.00225832 1.283e-05 -0.00194452 0.0150786 0.00693142 -0.016191 -0.00838819 -0.00365748 0.00960853 -0.0102706 -0.00110139 -0.00254062 0.0172225 0.0132202 -0.00371968 -0.00398363 -0.0109558 -0.0130796 -0.0113184 0.0146896
internal_weight=0 35447.5 12595 22852.4 20413.8 8374.11 2438.64 1576.93 18836.9 3492.83 7560.85 4220.93 6745.83 923.113 1799.83 6593.14 2274.58 813.266 638.804 640.306 2549.08 1485.93 1346.79 1063.14 949.18 17122.9 936.619 4318.55 3535.37 412.31 57.8201 139.144 1323.58 176.276 1068.51 1728.14 723.351 444.302 3123.06 504.878 674.242 2569.72 512.546 498.597 731.325 2790.78 438.022 2688.37 779.553
internal_count=210861 142135 50460 91675 81904 33539 9771 6316 75588 14004 30281 16921 27010 3696 7211 26398 9105 3258 2560 2566 10212 5956 5399 4256 3799 68726 3750 17293 14155 1650 232 557 5306 706 4285 6917 2895 1779 12505 2020 2698 10308 2054 1995 2926 11175 1755 10765 3123
is_linear=0
shrinkage=0.01


Tree=7
num_leaves=50
num_cat=0
split_feature=1 13 7 5 5 8 15 7 6 14 6 8 5 5 2 2 18 5 2 7 14 7 6 7 14 14 5 5 6 16 14 5 16 14 6 6 6 14 19 14 1 14 8 8 1 6 8 5 8
split_gain=87770.2 15878.4 11258.9 9943.47 4467.79 3638.86 2459.88 1505.07 901.016 1608.03 729.606 1372.49 638.635 592.053 446.635 369.495 367.985 494.989 347.215 331.963 321.863 246.087 225.975 212.914 202.449 159.529 234.261 277.919 153.984 149.544 140.493 291.418 159.233 138.084 132.287 262.911 154.048 131.681 128.914 127.857 126.732 123.427 119.511 177.464 115.07 114.31 135.996 109.494 108.89
threshold=-1.1675441585408646 0.28610672646216573 -0.65848861743199572 -0.41165669978903291 1.6532205239700042 -0.74671961479657745 -0.68173880231000961 -0.65848861743199572 -0.043510216093212609 -0.21014390911775074 -0.048182079775462051 -0.65480109414829224 -0.44980375779965032 -0.15829160424112768 -0.56901171681299922 -0.56905486950628059 -0.13179456807339759 -0.37727295417986434 -0.56699288731042652 0.96114016567250271 0.23040303473799886 -0.56856518197216799 -0.043677383531862013 -0.56859121465212448 -0.30956868956182276 -0.03374245928004619 -0.29938258616908525 -0.29931474318234874 -0.043211092000999422 0.20075617952305547 -0.22277394882594881 -0.39649824298214831 -0.028863983114814012 0.18639190862587138 -0.04608831993326664 -0.04608846584794473 -0.044338692688095732 -0.25874879134982398 -0.34881977374541545 -0.18361072357616334 0.71356618928481397 -0.17210862111479411 -0.74671961479657745 -0.65488763246774573 0.71356618928481397 -0.04626116451089466 -0.65488763246774573 -0.45037851573810134 -0.28708318057604176
decision_type=2 2 2 2 2 2 2 2 2 2 2 2 2 2 2 2 2 2 2 2 2 2 2 2 2 2 2 2 2 2 2 2 2 2 2 2 2 2 2 2 2 2 2 2 2 2 2 2 2
left_child=16 3 14 6 10 23 18 28 13 29 -5 42 47 20 24 -13 17 -1 -2 37 22 -17 25 -4 -3 26 38 -28 -6 48 31 45 -33 34 35 -26 -36 -9 -7 -24 -23 -42 -12 -44 -34 -16 -47 -8 -10
right_child=1 2 5 4 7 8 12 19 9 -11 11 15 -14 -15 30 21 -18 -19 -20 -21 -22 40 39 -25 33 -27 27 -29 -30 -31 -32 32 44 -35 36 -37 -38 -39 -40 -41 41 -43 43 -45 -46 46 -48 -49 -50
leaf_value=-0.018749918125319107 0.018191600576854976 -0.017251201791963742 -0.019828481625575 0.018621436098715839 0.00052245557652613945 -0.010806046040505241 -0.011671516370450163 -0.0026140561617759607 -0.0098149858542759989 0.012006503481557327 0.018063798374905033 0.016757402038417604 -0.0038472881784165935 -0.01874001358095382 0.015681339551993041 0.014056305928132751 -0.01872965859251547 0.018389435639866242 0.0029975074816203304 -0.012714175402013828 0.017585111717051891 -0.014916761788428797 -0.011955741155779409 0.016551565121614844 -0.00015226320700841166 -0.014106632440037264 0.0096773544654712492 -0.0082064019464241043 0.017947985866155525 0.0025020958662048203 0.017201369590059603 0.01633033172546941 0.018831474584029208 0.018627385175124647 -0.00010726561133171574 0.018793983445639154 0.0087573874036005889 0.018457978420447753 -0.0043401268008849726 0.0066899105822010932 -0.0030535119012563084 0.017909399836794002 -0.01920383209775758 0.013569596342420966 0.0044092217843650699 -0.0079392388321317033 0.012703267646394727 -0.01840446999108657 -0.0023209561817642351
leaf_weight=83.622912555932999 366.27404148876667 30.678838685154915 16.492612436413765 15325.956129595637 58.481517180800438 2886.1224433630705 370.23721544444561 610.75912201404572 1390.2119282931089 525.63662825524807 2052.6733272820711 137.80512887239456 715.28049258887768 805.08758126199245 46.153411194682121 90.097375422716141 16956.132514327765 62.863660052418709 255.18458995223045 460.97053003311157 43.613403841853142 86.041972354054451 51.709625348448753 654.30822089314461 106.11921556293964 829.84393495321274 135.48003901541233 242.31626486778259 381.66265034675598 126.9486857354641 1521.5710978657007 1105.2665310651064 73.961880147457123 127.45786754786968 306.41590808331966 236.41106402873993 544.18294453620911 31.169205337762833 345.23068036139011 127.34647184610367 440.92559553682804 29.997966319322586 17.216959714889526 409.41149638593197 219.5134584158659 114.71137394011021 44.217852056026459 694.82210905849934 225.31471262872219
leaf_count=336 1471 123 66 61584 234 11561 1484 2444 5566 2106 8245 553 2862 3235 185 361 68138 252 1021 1848 175 345 207 2626 425 3327 542 970 1532 508 6109 4434 297 512 1227 949 2181 125 1382 510 1764 120 69 1642 879 459 177 2791 902
internal_value=0 0.00899317 0.000137385 0.0140557 0.01635 -0.0066851 -0.00517651 -9.5166e-07 -0.00862272 -0.00332398 0.0177072 0.0134145 -0.0111557 -0.0108211 0.0129477 0.00188962 -0.0185933 -0.00281183 0.0119526 -0.00624001 -0.0094535 -0.00127678 -0.00970885 0.0156571 0.00814396 -0.0101531 -0.00924411 -0.00179318 0.0156327 -0.00794859 0.0150246 0.0129595 0.0145917 0.00873392 0.00767704 0.0129243 0.00556402 -0.00159089 -0.0101152 0.00130523 -0.00375713 -0.00171817 0.0170629 0.012247 0.00804393 0.00182725 -0.00219601 -0.016064 -0.00876981
internal_weight=0 35417.3 12882.3 22535 20133.2 8405.66 2401.8 1543.04 7734.86 2268.11 18590.1 3264.17 1780.34 5466.75 4476.66 784.868 17102.6 146.487 621.459 1102.9 4661.66 647.063 4618.05 670.801 1351.27 4438.99 3609.15 377.796 440.144 1742.48 3125.4 1603.82 1398.74 1320.59 1193.13 342.53 850.599 641.928 3231.35 179.056 556.966 470.924 2479.3 426.628 293.475 205.083 158.929 1065.06 1615.53
internal_count=210861 142135 51640 90495 80866 33683 9629 6183 30991 9082 74683 13099 7137 21909 17957 3143 68726 588 2492 4417 18674 2590 18499 2692 5417 17782 14455 1512 1766 6976 12540 6431 5610 5294 4782 1374 3408 2569 12943 717 2229 1884 9956 1711 1176 821 636 4275 6468
is_linear=0
shrinkage=0.01


Tree=8
num_leaves=50
num_cat=0
split_feature=1 13 7 5 5 8 15 7 11 6 14 6 8 11 5 16 2 2 7 11 7 5 6 7 6 19 16 11 5 5 2 6 6 11 8 0 1 14 19 7 8 11 8 8 5 0 6 14 12
split_gain=86130.3 15586.1 11042.7 9759.81 4387.71 3568.83 2412.54 1476.29 911.49 751.721 1683.92 717.706 1347.84 644.8 627.316 531.042 362.522 341.131 325.68 319.799 241.302 232.39 210.469 208.863 205.82 196.991 181.803 179.932 217.646 283.902 156.123 151.25 136.687 134.162 129.187 124.911 124.328 120.987 119.43 128.75 299.792 117.706 117.601 174.062 103.82 97.586 118.256 95.8913 106.519
threshold=-1.1675441585408646 0.28610672646216573 -0.65848861743199572 -0.41165669978903291 1.6532205239700042 -0.74671961479657745 -0.68173880231000961 -0.65848861743199572 -0.097181814097205527 -0.043677383531862013 -0.21014390911775074 -0.048182079775462051 -0.65480109414829224 -0.088484105211980038 -0.44980375779965032 -0.013117635099189484 -0.56905486950628059 -0.56699288731042652 0.96114016567250271 -0.088108123333229885 -0.56856518197216799 -0.39649824298214831 -0.04608831993326664 -0.56859121465212448 -0.04608846584794473 -0.17733148779785743 0.33489426760921465 -0.091103545500476349 -0.29938258616908525 -0.29931474318234874 -0.56911220306531585 -0.043211092000999422 -0.04626116451089466 -0.090610915943477047 -0.65488763246774573 3.7035475203218686 0.71356618928481397 -0.17210862111479411 -0.17733148779785743 -0.56856518197216799 -0.47094995889555852 -0.097817314622612075 -0.74671961479657745 -0.65488763246774573 2.0294294101321246 0.93515808196482753 -0.044338692688095732 -0.30171427597425132 -0.028854405273172366
decision_type=2 2 2 2 2 2 2 2 2 2 2 2 2 2 2 2 2 2 2 2 2 2 2 2 2 2 2 2 2 2 2 2 2 2 2 2 2 2 2 2 2 2 2 2 2 2 2 2 2
left_child=25 3 13 6 11 23 17 31 -7 19 26 -5 42 15 35 21 -14 -2 33 27 -18 32 24 -4 -17 -1 47 28 38 -30 -27 -6 -3 -9 -34 -8 -22 -38 39 40 -10 -23 -13 -44 -20 46 -24 48 -11
right_child=1 2 5 4 7 8 14 18 9 10 -12 12 16 -15 -16 22 20 -19 44 -21 36 41 45 -25 -26 30 -28 -29 29 -31 -32 -33 34 -35 -36 -37 37 -39 -40 -41 -42 -43 43 -45 -46 -47 -48 -49 -50
leaf_value=-0.01849500652393174 0.018031862623166358 0.015710445012823964 -0.019635658523395563 0.018460104931485331 0.00051723569939038979 -0.018455524778718684 -0.011273253252811246 -0.0026246940707506622 -0.0088525307604819178 -0.00022743089762228622 0.010790419892060827 0.01790554771172204 0.016606737472491414 0.018225230732036319 -0.0038090132099252035 -0.00036516095803637897 0.013923898428509177 0.0029675918114761891 -0.015057651133275562 0.017403425918137688 -0.014777588799457913 -0.018912786205545304 -0.0017033336420647586 0.016401914356266971 0.018654136287490974 0.014576755552553838 0.00477097076018886 -0.014386448762541082 0.0094504560283347732 -0.0081158910229983498 -0.018568027947281743 0.017788772403752345 -0.0079125261039874762 0.018338005246653109 0.011858206033158828 -0.018446329618532892 -0.003023082149927372 0.017733197642064203 0.0024563246426017259 -0.011565842691831118 0.011866374641107116 0.01514538339204851 -0.019028832738281685 0.013443320435396023 -0.0034449098032751906 -0.019007287793330843 0.0058679391825346072 -0.012889828530937054 -0.0085441465181567162
leaf_weight=17021.754667177796 365.82575458288193 67.538966819643974 16.488045543432236 15305.399036452174 58.481006592512131 827.92512778937817 374.78696551918983 609.74799638986588 811.5016218572855 179.58774913847446 657.42409962415695 2050.1194800436497 137.66549898684025 1480.9205632656813 715.24359774589539 82.148439928889275 90.044860571622849 255.17950828373432 362.98272283375263 42.82368278503418 85.984061866998672 10.213473603129385 317.24530138075352 653.6784482896328 185.1118670552969 32.345910042524338 105.96524807810783 788.32191804051399 137.46609768271446 278.19475995004177 25.348326399922371 381.22996194660664 100.69623343646526 32.13974629342556 49.197382390499115 689.18828155100346 440.91028025746346 29.993095338344574 75.219042211771011 2252.0381326824427 76.413052409887314 1570.0080385059118 17.201617747545242 409.12601968646049 97.709900140762329 20.191821843385696 589.85950128734112 417.27893935143948 1080.8951059877872
leaf_count=68494 1471 271 66 61584 234 3331 1503 2440 3251 719 2635 8245 553 5956 2862 329 361 1021 1457 172 345 41 1270 2626 744 130 424 3163 550 1114 102 1532 403 129 197 2772 1764 120 301 9025 306 6302 69 1642 391 81 2363 1671 4329
internal_value=0 0.00891185 0.000136105 0.0139313 0.0162063 -0.00662177 -0.00512812 -9.27597e-07 -0.00854072 -0.00735159 -0.00289019 0.0175526 0.0132931 0.0128284 -0.0110512 0.0101574 0.00187138 0.0118417 -0.00617941 -0.00979243 -0.00126427 0.0135916 0.00498946 0.0155153 0.0128081 -0.0184325 -0.00793242 -0.010056 -0.00911574 -0.0023064 1.4386e-05 0.0154917 0.00389867 -0.00157508 -0.00142347 -0.0159196 -0.00372009 -0.00170106 -0.00999606 -0.0102944 -0.00706948 0.0149253 0.0169118 0.0121331 -0.0125947 0.00273601 0.00322001 -0.00873475 -0.00735922
internal_weight=0 35383.3 12874.4 22509 20108.7 8401.22 2400.22 1542.29 7731.05 6903.13 2441.15 18566.4 3261.04 4473.13 1779.22 2992.21 784.598 621.005 1102.58 4461.98 646.932 1797.65 1194.56 670.166 267.26 17079.4 1783.73 4419.15 3630.83 415.661 57.6942 439.711 217.433 641.888 149.894 1063.98 556.887 470.903 3215.17 3139.95 887.915 1580.22 2476.45 426.328 460.693 927.297 907.105 1677.76 1260.48
internal_count=210861 142135 51640 90495 80866 33683 9629 6183 30991 27660 9778 74683 13099 17957 7137 12001 3143 2492 4417 17882 2590 7214 4787 2692 1073 68726 7143 17710 14547 1664 232 1766 871 2569 600 4275 2229 1884 12883 12582 3557 6343 9956 1711 1848 3714 3633 6719 5048
is_linear=0
shrinkage=0.01


Tree=9
num_leaves=50
num_cat=0
split_feature=1 13 5 15 5 11 15 1 14 6 14 6 15 5 14 11 16 15 2 6 3 6 6 6 14 5 19 6 19 11 11 15 6 2 6 0 15 6 14 13 5 5 5 15 5 16 14 6 12
split_gain=84533.1 15301.8 9581.2 8368 4309.97 2506.98 2366.31 1599.86 1669.36 1288.35 726.966 706.282 1158.76 616.37 593.75 572.795 364.801 336.817 335.253 334.52 298.206 287.876 971.793 221.341 283.062 262.441 200.167 198.727 193.428 182.314 197.859 177.274 166.99 153.21 133.131 123.009 116.099 105.279 107.833 103.501 99.7336 95.7064 95.1094 92.012 89.4119 85.2222 82.9957 92.0232 92.3482
threshold=-1.1675441585408646 0.28610672646216573 -0.41165669978903291 -0.7740300581449453 1.6532205239700042 -0.088108123333229885 -0.68173880231000961 0.71356618928481397 -0.18690329091502336 -0.036086761745309455 -0.30565811312430397 -0.048182079775462051 -0.68173880231000961 -0.44980375779965032 -0.30176136016105859 -0.088484105211980038 -0.040335666896546295 -0.12769656265975035 -0.56699288731042652 -0.044799119013108693 -0.38013862394277936 -0.04608846584794473 -0.04608831993326664 -0.044991934518647546 -0.30171427597425132 0.55439207906458599 1.623478792404853 -0.04608831993326664 -0.17733148779785743 -0.096582231498368448 -0.0913842618825806 -0.56054929086696148 -0.034704478708987192 -0.56911220306531585 -0.043046170188865106 3.7035475203218686 -0.68183153395125251 -0.044338692688095732 -0.30171427597425132 0.81433213354717704 -0.42561818859729877 -0.38678328970883857 -0.26536782883674115 -0.7740300581449453 -0.24588902332765417 -0.14829017904509964 -0.19522498045760553 -0.044292401476378397 -0.054216392875263412
decision_type=2 2 2 2 2 2 2 2 2 2 2 2 2 2 2 2 2 2 2 2 2 2 2 2 2 2 2 2 2 2 2 2 2 2 2 2 2 2 2 2 2 2 2 2 2 2 2 2 2
left_child=28 2 6 15 11 7 18 19 10 17 21 -4 -13 35 -12 16 -3 43 -2 -5 -14 -9 -23 40 25 31 46 -18 -1 -21 -31 -25 -27 -30 -19 -8 -24 38 -29 -38 -16 -26 -10 -6 -32 -42 -22 48 -48
right_child=1 3 4 5 9 -7 13 8 42 -11 14 12 20 -15 23 -17 27 34 -20 29 26 22 36 24 41 32 -28 37 33 30 44 -33 -34 -35 -36 -37 39 -39 -40 -41 45 -43 -44 -45 -46 -47 47 -49 -50
leaf_value=-0.018337818520012913 0.017876251888790967 0.014056299180982704 0.018303087093350111 0.01827835172772967 0.010747805797025094 0.016404387479419663 -0.011167101433332882 -0.0075346222623577019 -0.00038645503131845864 0.015646376164689522 -0.018838240979317477 0.016923768802673298 0.01566484894108354 -0.0037711438768312485 -0.00053698097735213905 0.018312179100020989 0.013648265604852081 -0.014066671268273932 0.0029379870510612771 -0.018434506440522885 0.00070974662943849073 0.01863197009698939 -0.019647680905283401 0.011840980676574226 -0.0035774832077292134 -0.012063703706178 -0.018563945438285871 0.0088369076102328067 0.014444273595359965 0.018608140422885461 -0.01298190503486743 -3.1246966820878453e-06 0.0022890822208886221 -0.018410403819869865 -0.003919079695747665 -0.018288521633302281 0.0032453114544764507 0.0060406807541471767 -0.0054943645833680048 -0.0031771095571794905 -0.0017138053596187429 -0.01011383143665618 0.011709430493960052 -0.0013877405345985843 0.018320213528836223 -0.010112207361082043 0.016650163668977352 0.016138782091376983 -0.011549580843371619
leaf_weight=16996.11235126853 365.32261279225349 1026.7148543149233 15282.44677247107 30.691330507397652 71.48992508649826 532.31510610878468 374.56720930337906 480.84810061752796 72.147667601704597 392.28634336590767 439.90055923163891 2334.8407451957464 169.63880279660225 715.20183593034744 132.50727941095829 1479.0768976062536 213.71450111269951 388.15840184688568 255.17335468530655 824.97451058030128 573.49650995433331 269.65388461947441 36.693842530250549 196.91500441730022 344.43121495842934 222.61410717666149 48.953976631164551 69.318847075104713 32.316306382417679 20.707535460591316 884.48467375338078 352.73256294429302 127.48412774503231 25.309886902570724 193.85520949959755 688.18875062465668 331.02293536067009 374.72951924800873 216.42623636126518 1037.0541676580906 130.00346118211746 640.73075024783611 656.62872555851936 495.61497393250465 9.2204391062259656 1711.5169842094183 18.409126281738281 80.744595050811768 31.455640539526939
leaf_count=68494 1471 4125 61584 123 287 2142 1503 1927 289 1577 1767 9399 682 2862 531 5957 859 1559 1021 3324 2297 1084 147 790 1380 892 197 278 130 83 3551 1413 511 102 776 2772 1326 1502 866 4154 521 2567 2633 1984 37 6861 74 324 126
internal_value=0 0.00883234 0.0138099 0.00013485 0.0160662 -0.00467946 -0.00508061 -0.00593304 -0.00383456 -9.05745e-07 -0.00545452 0.017402 0.0131744 -0.0109485 -0.00783089 0.0136453 0.010014 -0.00534258 0.011733 -0.0144485 0.00368697 -0.000714683 0.00124381 -0.00657611 -0.00412519 -7.02025e-05 0.000988757 0.00526647 -0.0182758 -0.015026 -0.0119509 0.00424011 -0.00683731 1.42354e-05 -0.0106867 -0.0157786 -0.00209394 0.00255432 -0.00201774 -0.00162313 -0.00891637 -0.0078286 0.010512 0.000142081 -0.012659 -0.00951932 0.00234819 0.00954246 -0.00113877
internal_weight=0 35345.1 22479.8 12865.3 20081.4 9485.28 2398.45 8952.96 7182.89 1541.4 6454.11 18540 3257.54 1777.96 4298.84 3379.98 1900.9 1149.12 620.496 1770.08 922.699 2155.27 1674.42 3858.94 1884.91 899.746 753.06 874.189 17053.7 1739.39 914.413 549.648 350.098 57.6262 582.014 1062.76 1404.77 660.475 285.745 1368.08 1974.03 985.162 728.776 567.105 893.705 1841.52 704.106 130.609 49.8648
internal_count=210861 142135 90495 51640 80866 38053 9629 35911 28793 6183 25871 74683 13099 7137 17233 13587 7630 4606 2492 7118 3700 8638 6711 15466 7553 3606 3018 3505 68726 6995 3671 2203 1403 232 2335 4275 5627 2646 1144 5480 7913 3947 2922 2271 3588 7382 2821 524 200
is_linear=0
shrinkage=0.01


Tree=10
num_leaves=50
num_cat=0
split_feature=1 17 7 5 5 11 7 7 6 7 11 6 2 11 6 14 2 16 5 6 14 6 6 19 14 7 5 11 5 5 2 6 5 16 5 6 6 14 19 6 6 0 6 11 7 7 6 7 11
split_gain=83188.9 14800 10453.9 9217.29 4146.16 3091.27 2433.07 1506.51 929.922 1634.41 901.223 656.008 631.725 611.582 599.99 1338.09 557.238 493.543 444.243 318.274 249.442 222.722 218.506 205.241 202.134 168.32 164.231 160.159 218.788 155.603 154.43 140.729 283.544 138.554 130.432 117.569 115.1 106.754 106.32 102.312 171.105 98.209 119.348 90.794 84.6501 167.382 83.8022 77.4808 76.4747
threshold=-1.1675441585408646 0.46871991555556175 -0.65848861743199572 -0.41165669978903291 1.6532205239700042 -0.088108123333229885 -0.56856518197216799 -0.56856518197216799 -0.048182079775462051 -0.56856518197216799 -0.097817314622612075 -0.046698360708764756 -0.56900649154735916 -0.088484105211980038 -0.043677383531862013 -0.1992659244124976 0.026209602697200719 -0.028863983114814012 -0.44980375779965032 -0.043046170188865106 -0.30565811312430397 -0.04608831993326664 -0.04608846584794473 -0.17733148779785743 -0.30176136016105859 0.96114016567250271 -0.39649824298214831 -0.091103545500476349 -0.29938258616908525 -0.29931474318234874 -0.56911220306531585 -0.04608846584794473 -0.39648422050912141 0.20075617952305547 2.0294294101321246 -0.04626116451089466 -0.044177839134557036 -0.30171427597425132 1.623478792404853 -0.03485803491879965 -0.034704478708987192 0.93515808196482753 -0.044338692688095732 -0.097817314622612075 -0.65705638515052922 -0.56859121465212448 -0.044338692688095732 -0.56859121465212448 -0.091103545500476349
decision_type=2 2 2 2 2 2 2 2 2 2 2 2 2 2 2 2 2 2 2 2 2 2 2 2 2 2 2 2 2 2 2 2 2 2 2 2 2 2 2 2 2 2 2 2 2 2 2 2 2
left_child=23 3 13 6 8 10 16 19 -5 44 -4 -12 -11 17 20 33 -2 26 36 -6 31 22 -19 -1 -22 -9 35 28 -26 -30 -25 -13 -33 37 -27 -3 -8 39 -14 -16 -41 42 -23 -28 -10 -46 -47 -17 -45
right_child=1 2 5 4 7 -7 18 25 9 12 11 14 38 -15 15 47 -18 21 -20 -21 24 41 -24 30 27 34 43 -29 29 -31 -32 32 -34 -35 -36 -37 -38 -39 -40 40 -42 -43 -44 48 45 46 -48 -49 -50
leaf_value=-0.018188236688208251 0.017061365715827594 0.016092154675323316 -0.01820229753693095 0.018155012226125179 -0.0011673598887047742 0.017079343283656619 -0.016426048710535192 -0.0037906841981893316 0.017489106997829799 0.016227845216796266 0.017286130838414463 -0.0091219002900158087 -0.0024275002089505426 0.017921083584349375 -0.0022006598302555624 -0.02067751946986526 0.00070914870845444457 0.00014710095232641778 -0.0051123957499105907 0.015750285126439629 -0.018540347143681066 -0.00089712828490786018 0.018324780638582956 0.014721048680781952 -0.0098283148670192111 -0.015073605028230175 -0.018756719682522113 -0.013890691468748068 0.010264705325620262 -0.0056133375356028636 -0.018256414129791728 0.018613136656402948 -0.0041250940995829532 0.0027308849124464529 -0.0019492215359175255 -0.00056309632073191229 0.0098913913686414518 -0.012749505735403722 -0.018402787632100438 -0.013572509893955777 -0.0049259961286898125 -0.01876285028642332 0.0062625259152637473 0.015951115524265713 -0.019467243532957181 0.008977975027674957 0.017341122086254903 0.010689593027847425 0.0085748683779579577
leaf_weight=16992.642819985747 427.64547877013683 63.706493437290192 804.0025455057621 15281.211639076471 143.22180606424809 516.92133645713329 995.41088017821312 473.25021317601204 2027.050178155303 212.13244821131229 109.33335539698601 394.40628710389137 672.34157136082649 1433.6467536389828 346.18516579270363 7.9898922294378272 406.47289481759071 94.619905203580856 597.37396121025085 497.43846452236176 304.83281400799751 365.39656530320644 219.60986356437206 33.274617686867714 2159.63407073915 359.31008115410805 7.9627739787101737 805.27331817150116 91.436045452952385 189.90998578071594 24.77196016907692 63.634343788027763 396.87821333110332 123.18368315696716 95.942457750439644 126.6223990470171 16.90045253932476 402.43839022517204 44.411898106336594 394.82172457873821 544.49053063988686 19.910481989383698 641.72055049240589 1228.729029789567 15.457127690315245 201.62708809971809 295.29382812976837 547.16389341652393 158.71015423536301
leaf_count=68594 1723 256 3245 61681 573 2083 4010 1894 8173 854 440 1581 2692 5783 1387 32 1627 379 2391 2002 1227 1463 885 134 8660 1445 32 3236 366 761 100 255 1589 493 384 507 68 1613 179 1583 2181 80 2572 4942 62 810 1189 2195 637
internal_value=0 0.00877167 5.91129e-05 0.0135803 0.0157872 -0.00659193 -0.0047684 0.000172419 0.017094 0.0124194 -0.00818402 -0.00701355 0.00106907 0.01257 -0.00740585 -0.00334427 0.00909279 0.00994902 -0.0119511 0.0119683 -0.00958714 0.00548413 0.0128512 -0.0181241 -0.0107546 -0.00796665 0.0137256 -0.0100235 -0.00874773 -0.000453053 0.000647585 -0.00473783 -0.00098309 -0.00750762 -0.0123077 0.00501171 -0.0159867 -0.00825482 -0.00341737 -0.00684771 -0.00856039 0.0032301 0.0036649 0.0149141 0.0165712 0.0129397 0.0139478 0.0102382 0.0151073
internal_weight=0 35325.7 12563.2 22762.5 20318.7 8202.54 2443.8 1569.16 18749.5 3468.31 7685.61 6881.61 928.886 4360.63 6772.28 2366.27 834.118 2926.99 1609.69 640.66 4406.01 1341.26 314.23 17050.7 3551.09 928.503 1585.73 3246.25 2440.98 281.346 58.0466 854.919 460.513 1811.12 455.253 190.329 1012.31 1687.94 716.753 1285.5 939.312 1027.03 1007.12 1395.4 2539.43 512.378 496.921 555.154 1387.44
internal_count=211048 142220 50463 91757 81938 32927 9819 6298 75640 13959 30844 27599 3725 17536 27159 9484 3350 11753 6469 2575 17675 5379 1264 68828 14250 3723 6374 13023 9787 1127 234 3425 1844 7257 1829 763 4078 6764 2871 5151 3764 4115 4035 5611 10234 2061 1999 2227 5579
is_linear=0
shrinkage=0.01


Tree=11
num_leaves=50
num_cat=0
split_feature=1 13 5 15 5 11 15 1 14 6 14 6 15 5 14 11 16 18 5 6 15 3 3 6 6 6 14 5 6 6 11 14 19 15 6 5 15 0 15 6 5 14 13 5 14 16 5 15 19
split_gain=81668.9 14738.5 9190.86 8074.04 4153.83 2440.64 2290.96 1528.94 1617.25 1246.67 699.55 696.284 1118.26 625.908 567.633 548.666 350.481 344.613 484.323 341.501 339.808 327.855 311.123 271.293 927.582 217.602 285.795 222.645 212.646 178.055 174.96 194.26 173.598 153.441 143.131 118.639 108.094 105.393 105.095 101.537 101.515 99.6385 97.1819 92.4034 89.0156 87.8298 86.3661 77.7314 73.4874
threshold=-1.1675441585408646 0.28610672646216573 -0.41165669978903291 -0.7740300581449453 1.6532205239700042 -0.088108123333229885 -0.68173880231000961 0.71356618928481397 -0.18690329091502336 -0.036679535923956445 -0.30565811312430397 -0.048182079775462051 -0.68173880231000961 -0.44980375779965032 -0.30176136016105859 -0.088484105211980038 -0.046311264180891189 -0.13179456807339759 -0.37727295417986434 -0.044799119013108693 -0.027046983384448605 -0.37987373240215522 -0.38013862394277936 -0.04608846584794473 -0.04608831993326664 -0.044991934518647546 -0.30171427597425132 0.55439207906458599 -0.04608831993326664 -0.034704478708987192 -0.096582231498368448 -0.03374245928004619 1.623478792404853 -0.56054929086696148 -0.043046170188865106 -0.42561818859729877 -0.68183153395125251 3.7035475203218686 -0.75339614987948178 -0.044338692688095732 -0.38678328970883857 -0.30171427597425132 0.81433213354717704 -0.26536782883674115 -0.19522498045760553 -0.14829017904509964 -0.24588902332765417 -0.7740300581449453 1.0000000180025095e-35
decision_type=2 2 2 2 2 2 2 2 2 2 2 2 2 2 2 2 2 2 2 2 2 2 2 2 2 2 2 2 2 2 2 2 2 2 2 2 2 2 2 2 2 2 2 2 2 2 2 2 2
left_child=17 2 6 15 11 7 21 19 10 20 23 -4 -13 37 -12 16 -3 18 -1 -5 38 -2 -14 -9 -25 35 27 33 -18 -29 -21 -32 44 -27 -22 -16 -26 -8 -6 41 -28 -30 -38 -10 -24 -37 48 -23 -33
right_child=1 3 4 5 9 -7 13 8 43 -11 14 12 22 -15 25 -17 28 -19 -20 30 34 47 32 24 36 26 40 29 39 -31 31 46 -34 -35 -36 45 42 -39 -40 -41 -42 -43 -44 -45 -46 -47 -48 -49 -50
leaf_value=-0.018142729260972625 0.017451910714510223 0.014048200878698793 0.018006104702105615 0.018384725331556672 0.011198146312864296 0.016337854407705878 -0.011347636042225214 -0.0073740124352469081 -0.00073291561805475332 0.015112422693239265 -0.018547467647869478 0.016638577284354205 0.015834243795335438 -0.0035625495105328 0.00032487533494179226 0.018026176810845698 0.013855525571958516 -0.018109106042356996 0.018453403491295702 -0.018134247948856427 -0.014342659130917534 0.0081742238837076864 0.00047695359759563526 0.018291931824079663 -0.019418058078491202 0.011095464199720264 -0.0033424962910161421 -0.011448701572680773 0.0087062275521044823 0.0032506743223432097 0.018528449898320788 -0.013021623787347503 -0.018249571519575243 6.2276589829036536e-05 -0.0033988255268330727 -0.0017536418561276107 0.0031208833431588196 -0.017971985376724182 -0.0016046690395533276 0.0060795566992574513 -0.01008651162371877 -0.0048298933865826045 -0.0031065170475240355 0.011587492797675574 0.0095797278009460869 -0.010055582406587906 0.018005487886989659 -0.0029044491408336502 0.02147589335844435
leaf_weight=86.322455108165741 375.60277473926544 977.1929837167263 15253.646424129605 31.657760933041573 73.382363975048065 526.31675824522972 371.96768999099731 472.78282980620861 67.129405483603477 404.09579229354858 432.34616678953171 2316.4264965951443 172.19182209670544 728.81738258898258 133.45329521596432 1472.7382156997919 225.68023462593555 16871.259042963386 62.235071450471878 813.74955649673939 382.39880655705929 128.92991082370281 588.80501967668533 266.96026605367661 34.923038721084595 196.71221026778221 340.76689398288727 227.59075652062893 71.015423491597176 129.1781742721796 20.690029859542847 882.04156202077866 44.337283447384834 350.89265929162502 173.83435359597206 137.67751252651215 330.44799594581127 677.8597849458456 507.77929195761681 384.71621088683605 646.9428985863924 232.14287014305592 1037.007345020771 653.35783070325851 131.40291319787502 1712.6341229528189 9.2071739733219129 124.47507141530514 6.2185388952493659
leaf_count=349 1517 3934 61681 127 295 2124 1495 1896 269 1628 1741 9352 694 2917 535 5951 909 68229 250 3290 1539 516 2359 1076 140 790 1366 913 285 518 83 3547 179 1406 696 552 1324 2739 2033 1543 2594 929 4155 2623 528 6872 37 498 25
internal_value=0 0.00869525 0.0135796 0.000142366 0.0157967 -0.00458876 -0.00488132 -0.00582153 -0.00377001 2.48764e-05 -0.0053572 0.0171103 0.0129102 -0.0106822 -0.00767936 0.0134499 0.00988534 -0.0179756 -0.00281154 -0.0141632 -0.00533546 0.0115219 0.0036905 -0.000686897 0.001207 -0.00646704 -0.00404086 2.07472e-05 0.00543249 -0.00612638 -0.0147581 -0.0117659 0.00095547 0.00402565 -0.0109225 -0.00878109 -0.00204533 -0.0156249 1.19222e-05 0.00266903 -0.00775978 -0.00165903 -0.00160165 0.0104396 0.00213777 -0.00943785 -0.0124643 0.00273227 -0.0127801
internal_weight=0 35280.1 22456 12824.2 20048.3 9460.68 2407.65 8934.37 7170.8 1541.49 6450.32 18506.8 3253.16 1778.64 4308.19 3363.49 1890.75 17019.8 148.558 1763.56 1137.39 629.008 936.737 2142.12 1669.34 3875.85 1892.08 904.374 913.555 356.769 1731.91 918.157 764.545 547.605 556.233 1983.76 1402.38 1049.83 581.162 687.875 987.71 303.158 1367.46 720.487 720.208 1850.31 897.467 253.405 888.26
internal_count=211048 142220 90666 51554 80984 38003 9682 35879 28770 6191 25878 74793 13112 7151 17287 13551 7600 68828 599 7109 4563 2531 3760 8591 6695 15546 7587 3627 3666 1431 6982 3692 3066 2196 2235 7959 5619 4234 2328 2757 3960 1214 5479 2892 2887 7424 3609 1014 3572
is_linear=0
shrinkage=0.01


Tree=12
num_leaves=50
num_cat=0
split_feature=1 13 7 6 6 8 8 18 11 7 11 11 6 14 0 16 18 16 7 7 8 19 6 7 6 8 14 14 11 6 16 18 17 6 8 6 6 6 0 3 14 14 8 2 6 6 19 7 18
split_gain=80187.1 14477.3 10310.2 8312.71 3468.23 5097.02 3340.02 1187.35 839.716 772.365 754.804 588.522 583.254 1347.42 534.735 493.757 338.625 463.053 309.781 288.001 286.514 261.295 231.227 228.982 213.111 203.644 171.739 188.329 162.055 148.262 146.952 127.027 131.883 113.492 108.724 103.258 106.665 100.928 120.465 93.1748 131.407 92.1603 89.9967 86.5406 85.362 202.339 74.0895 73.8695 67.8214
threshold=-1.1675441585408646 0.28610672646216573 -0.65848861743199572 -0.048729810288006985 -0.048182079775462051 -0.65480109414829224 -0.74671961479657745 -0.12875584096877532 -0.096582231498368448 0.69034390147300906 -0.088108123333229885 -0.088484105211980038 -0.043677383531862013 -0.1992659244124976 3.7035475203218686 -0.032600094868198967 -0.13179456807339759 -0.20867873792892447 -0.65848861743199572 -0.56856518197216799 -0.74671961479657745 -0.17733148779785743 -0.04608831993326664 -0.56859121465212448 -0.04608846584794473 -0.65488763246774573 -0.30565811312430397 -0.30176136016105859 -0.091103545500476349 -0.048735580551166773 0.20075617952305547 -0.13170107027176267 0.31348058608060309 -0.04319957217686126 0.63287658021778126 -0.046698360708764756 -0.044991934518647546 -0.044338692688095732 0.93515808196482753 -0.38011793278586897 -0.30565811312430397 -0.30171427597425132 -0.56335556885459914 -0.56892788277809225 -0.04608846584794473 -0.04608831993326664 1.0000000180025095e-35 -0.56859121465212448 1.0337258815144563
decision_type=2 2 2 2 2 2 2 2 2 2 2 2 2 2 2 2 2 2 2 2 2 2 2 2 2 2 2 2 2 2 2 2 2 2 2 2 2 2 2 2 2 2 2 2 2 2 2 2 2
left_child=16 3 11 14 7 20 23 -5 -8 19 12 15 26 30 18 39 17 -1 -2 -7 -6 34 24 -4 -17 -22 44 -28 35 -20 41 -27 -33 -11 -21 -29 -37 -24 -39 40 -3 43 -42 -14 -10 -46 -30 -15 -16
right_child=1 2 6 4 5 9 8 -9 10 33 -12 -13 13 47 48 22 -18 -19 29 21 25 -23 37 -25 -26 31 27 28 46 -31 -32 32 -34 -35 -36 36 -38 38 -40 -41 42 -43 -44 -45 45 -47 -48 -49 -50
leaf_value=-0.018002677899615644 0.00680449702126029 0.015716517960098996 -0.01935873401950617 0.017857286886596654 0.017190749017981035 0.011530363355066719 -0.017826069131315434 -0.017351949764151699 -0.0089708557289466338 -0.01451347433427066 0.014552373157249571 0.017645509735780267 -0.0093996803145911766 -0.020605242072841447 -0.018057683583716785 0.00041147333307153442 -0.017963579524377143 0.017730303519698901 -0.011624222613802795 -0.0038407023246584474 -0.019450216724726979 0.012574445799684315 -0.00085372487198615639 0.016121876122950848 0.018047813186061416 0.0037184796390448667 -0.018224847921264282 0.019647431110486509 -0.01421412030970972 -0.0038493163279994624 0.0030640784390136072 0.016643223253571537 0.0037165170865046233 -0.0036687005272220308 0.020009891750075514 -0.01014151582741441 -0.0054547467097269984 0.0063229674886905 -0.018520351045730396 0.015924576666747486 0.0049608692819199966 -0.01263151929442274 0.017789713522674461 -0.0040366461535813773 0.018218341957123216 -0.0048000155831601559 0.021131223888212695 0.010501155151589095 0.0058761500476712412
leaf_weight=85.171163365244865 202.34338048100471 328.05405016243458 18.716576218605042 15226.888183221221 2747.3669511824846 192.73523214459419 817.4112329185009 96.384456723928452 390.8358731418848 591.16738702356815 157.23308834433556 1467.0731925815344 734.50678968429565 7.7426403760910025 423.18693216145039 97.098535433411598 16838.022603943944 63.157422721385956 387.44699439406395 970.99001494050026 22.948405012488365 114.66127462685108 380.59142735600471 645.79954349994659 232.75216168165207 177.59318168461323 303.83050791919231 12.740726098418234 783.20367972552776 668.36543403565884 116.21785923838615 347.51110941171646 102.11677929759026 115.32383152842522 19.496610313653946 1824.2047788202763 661.75108639895916 656.12900498509407 20.116701066493988 866.82625736296177 323.86465467512608 417.69520293176174 65.791433811187744 509.66172164678574 42.456295505166054 379.88304604589939 5.9757605642080298 545.26827682554722 12.1805302798748
leaf_count=345 810 1323 75 61693 11113 774 3311 390 1568 2384 634 5939 2946 31 1713 389 68229 254 1558 3889 92 462 1524 2607 941 712 1227 51 3154 2675 465 1402 410 462 78 7323 2653 2631 81 3493 1301 1676 264 2042 170 1521 24 2190 49
internal_value=0 0.0086201 0.000141073 0.0134663 0.015207 0.00831715 -0.00638894 0.0176358 -0.00824284 -0.00432955 -0.00710644 0.0124633 -0.007612 -0.00356703 -0.00783566 0.00990453 -0.0178311 -0.00278779 -0.00453018 0.00025037 0.0157781 -0.00171683 0.0055469 0.0151225 0.0128562 0.00980859 -0.00975263 -0.0106922 -0.00999607 -0.00670244 -0.007807 0.0108791 0.0137074 -0.0127432 -0.00337123 -0.00874839 -0.00889392 0.00326559 0.00558394 0.0137181 0.0110531 -0.00856724 0.00712695 -0.00720276 -0.00560284 -0.00248606 -0.0139465 0.0100656 -0.0173881
internal_weight=0 35232.1 12813.4 22418.7 20725.2 5401.91 8375.13 15323.3 7710.62 2004.37 6893.21 4438.3 6735.97 2331.09 1693.52 2971.22 16986.4 148.329 1258.16 1297.88 3397.54 1105.15 1386.69 664.516 329.851 650.169 4404.88 3591.71 3287.88 1055.81 1778.08 627.221 449.628 706.491 990.487 2498.7 2485.96 1056.84 676.246 1584.54 717.71 1661.86 389.656 1244.17 813.175 422.339 789.179 553.011 435.367
internal_count=211048 142220 51554 90666 83861 21778 33668 62083 30986 8049 27675 17886 27041 9350 6805 11947 68828 599 5043 5203 13729 4429 5566 2682 1330 2616 17691 14432 13205 4233 7129 2524 1812 2846 3967 10027 9976 4236 2712 6381 2888 6664 1565 4988 3259 1691 3178 2221 1762
is_linear=0
shrinkage=0.01


Tree=13
num_leaves=50
num_cat=0
split_feature=1 13 7 5 5 8 8 7 11 11 5 6 8 11 6 11 16 6 3 6 6 7 6 7 19 11 5 5 5 7 3 3 5 7 19 5 8 8 6 1 8 17 6 11 7 7 6 15 11
split_gain=78743.3 14222.5 10116.3 8871.74 4020.95 3277.06 2235.99 1406.54 826.411 740.433 675.848 674.461 1226.35 579.934 572.275 816.936 485.093 440.974 352.051 306.336 227.184 224.749 209.584 205.15 194.511 166.301 178.227 291.273 157.789 154.803 152.152 146.168 131.922 122.775 121.338 121.299 111.676 143.052 105.308 101.354 100.233 99.5357 98.9642 118.182 95.2821 91.7643 90.7645 90.1426 87.2278
threshold=-1.1675441585408646 0.28610672646216573 -0.65848861743199572 -0.41165669978903291 1.6532205239700042 -0.74671961479657745 -0.74671961479657745 -0.56856518197216799 -0.096582231498368448 -0.088108123333229885 -0.44980375779965032 -0.048182079775462051 -0.65480109414829224 -0.088484105211980038 -0.043677383531862013 -0.093771327471764851 -0.032600094868198967 0.057108121211911729 -0.38013862394277936 -0.043046170188865106 -0.04608831993326664 -0.56859121465212448 -0.04608846584794473 -0.56856518197216799 -0.17733148779785743 -0.091103545500476349 -0.29938258616908525 -0.29931474318234874 -0.39649824298214831 0.96114016567250271 -0.37987373240215522 -0.38016665010682277 -0.43046978008239983 -0.47863480249865747 -0.17733148779785743 2.0294294101321246 -0.74671961479657745 -0.65488763246774573 -0.04626116451089466 0.71356618928481397 -0.56335556885459914 0.31348058608060309 -0.044338692688095732 -0.097817314622612075 -0.65848861743199572 -0.56859121465212448 -0.047941029219866045 -0.7740300581449453 -0.097817314622612075
decision_type=2 2 2 2 2 2 2 2 2 2 2 2 2 2 2 2 2 2 2 2 2 2 2 2 2 2 2 2 2 2 2 2 2 2 2 2 2 2 2 2 2 2 2 2 2 2 2 2 2
left_child=24 3 13 6 11 21 30 19 -7 14 33 -5 36 16 25 -16 28 45 -14 -6 22 -4 -18 -20 -1 26 32 -28 38 -9 -2 -26 -10 46 -34 -31 -13 -38 -3 -25 -40 -39 -22 -44 -12 -17 -8 -32 -30
right_child=1 2 5 4 7 8 10 29 9 -11 44 12 18 -15 15 17 20 -19 23 -21 42 -23 -24 39 31 -27 27 -29 48 35 47 -33 34 -35 -36 -37 37 41 40 -41 -42 -43 43 -45 -46 -47 -48 -49 -50
leaf_value=-0.017752889894697279 0.017738426959715625 0.015487131299490463 -0.019179536420310752 0.017719713302413922 -0.0012432365775865641 -0.017684443905071227 -0.0087815455348787784 -0.0038021636030991621 0.00095250899327160442 0.01442635532553258 0.0081994699974615448 0.017168188804859989 0.015322097316744637 0.01750421502517235 -0.0080136909735703307 -0.019957330904795172 0.00040736079865150122 -0.0075348592069908182 0.014271371428919176 0.015420777247604798 -0.00084518162460330384 0.015985156488659103 0.017902173365450375 -0.013908933036239603 0.01434936342137551 -0.013823593841430632 0.0092860967904500376 -0.0084965233631788453 -0.018777015134887387 -0.014699171426033353 0.010662420888469734 -0.017819817332874428 -0.010252359073465136 -0.016247058825276793 0.0029366362236949374 -0.0020237239918291612 -0.018839709640645155 0.015131641350130341 -0.0052196331797418494 -0.0017761578976741358 0.016075693178696518 0.0030130945953620175 -0.018364056657879154 0.0062615420336826965 -0.0039856139353073609 0.0092051657610228658 0.018451684543573234 -0.0061665047714902508 0.01494371524794897
leaf_weight=16892.767407014966 344.32649303972721 63.54762265086174 18.702601447701454 15192.064529895782 143.1947488039732 815.72624580562115 120.05092622339725 461.90393935143948 115.19729363918304 157.02154763042927 70.101440459489822 2023.2236941754818 155.76433907449245 1464.140882357955 1481.6182757914066 10.985178992152212 97.098019048571587 229.84216757118702 73.316237956285477 480.45350654423237 380.59411850571632 644.81467743217945 232.3014612197876 80.389135867357254 33.122221127152443 788.23791132867336 137.91300551593304 277.34673619270325 7.7138317823410025 358.01553942263126 110.39903923869133 24.625778764486313 3011.7096660286188 940.85721763968468 71.408441200852394 95.672099247574806 14.937534824013708 331.76753729581833 96.177074417471886 479.76817613840103 28.697642207145691 85.176969543099403 20.085189089179039 655.94088190793991 758.8591301292181 607.52388040721416 13.627406939864157 44.722226783633232 1386.5953413695097
leaf_count=68594 1396 256 75 61681 573 3311 483 1849 462 634 281 8202 629 5939 5943 44 389 922 295 1941 1524 2607 941 324 134 3178 552 1112 31 1445 442 100 12101 3808 286 383 60 1340 385 1920 115 342 81 2631 3038 2441 55 179 5594
internal_value=0 0.00854676 0.000139812 0.0133557 0.0155395 -0.00633044 -0.00479808 1.20589e-05 -0.0081669 -0.0070399 -0.00973927 0.0168358 0.0126969 0.0123538 -0.00754061 -0.00353307 0.00981372 0.0042922 0.00185329 0.0115946 0.00549411 0.014994 0.0127452 -0.00145854 -0.0176903 -0.00966188 -0.00875408 -0.00259069 0.0135965 -0.00787729 0.0140338 0.000631293 -0.00955431 -0.0149729 -0.00994689 -0.0120262 0.0161828 0.0115666 0.00500735 -0.00351735 -0.000325723 0.012656 0.0032336 0.0055299 -0.00295518 0.00868722 -0.00600534 0.00581056 0.0147572
internal_weight=0 35179.5 12800.9 22378.6 19975.6 8368.05 2402.94 1539.24 7704.53 6888.8 1903.5 18436.4 3244.34 4432.89 6731.78 2329.97 2968.75 848.351 789.238 623.648 1386.02 663.517 329.399 633.474 16950.5 4401.81 3613.58 415.26 1582.73 915.592 499.448 57.748 3198.32 1074.54 3083.12 453.688 2455.11 431.882 188.422 560.157 124.875 416.945 1056.62 676.026 828.961 618.509 133.678 155.121 1394.31
internal_count=211048 142220 51554 90666 80984 33668 9682 6191 30986 27675 7665 74793 13112 17886 27041 9350 11947 3407 3168 2514 5566 2682 1330 2539 68828 17691 14513 1664 6381 3677 2017 234 12849 4346 12387 1828 9944 1742 756 2244 500 1682 4236 2712 3319 2485 538 621 5625
is_linear=0
shrinkage=0.01


Tree=14
num_leaves=50
num_cat=0
split_feature=1 13 7 5 5 11 7 7 11 5 11 2 5 7 16 13 5 7 18 5 5 14 3 5 14 5 5 7 19 5 5 14 14 5 7 7 5 1 1 16 14 7 11 11 5 0 5 11 5
split_gain=77335 13974.7 9926.8 8716.3 3954.01 2946.75 2194.81 1379.88 860.406 606.643 571.6 505.248 490.592 784.207 476.774 441.31 409.867 385.699 330.904 463.866 319.83 1126.74 311.743 223.795 209.548 567.674 155.109 152.13 150.381 128.947 346.398 128.171 152.95 119.242 117.991 158.075 110.844 105.487 97.6954 93.4499 92.7357 102.982 90.8957 94.0079 88.354 88.1938 123.125 85.612 82.0985
threshold=-1.1675441585408646 0.28610672646216573 -0.65848861743199572 -0.41165669978903291 1.6532205239700042 -0.088108123333229885 -0.56856518197216799 -0.56856518197216799 -0.097817314622612075 -0.44504894873044959 -0.088484105211980038 0.026209602697200719 -0.14359205210942738 -0.56856518197216799 -0.032600094868198967 -0.079069002291980925 -0.44980375779965032 -0.65436698338051635 -0.13179456807339759 -0.37727295417986434 -0.24594857515576043 -0.21014390911775074 -0.38009936898276392 2.0294294101321246 -0.03374245928004619 -0.29938258616908525 -0.39649824298214831 0.96114016567250271 -0.34881977374541545 -0.39649824298214831 -0.39648422050912141 -0.30565811312430397 -0.30176136016105859 2.0294294101321246 -0.56859121465212448 -0.56856518197216799 -0.39649824298214831 0.71356618928481397 0.71356618928481397 -0.12169751813727343 -0.30171427597425132 -0.47866654884739229 -0.087745386060034611 -0.091198175710169041 -0.41592342678172467 3.7035475203218686 -0.45037851573810134 -0.097817314622612075 -0.29931474318234874
decision_type=2 2 2 2 2 2 2 2 2 2 2 2 2 2 2 2 2 2 2 2 2 2 2 2 2 2 2 2 2 2 2 2 2 2 2 2 2 2 2 2 2 2 2 2 2 2 2 2 2
left_child=18 3 10 6 12 8 11 23 -4 -10 14 -2 15 -14 26 -5 45 -17 19 -1 24 34 -15 -6 25 28 44 -9 31 -16 -31 36 -33 -29 -22 39 -11 -32 -24 -36 41 -37 43 -19 -3 46 -8 -28 -27
right_child=1 2 5 4 7 -7 16 27 9 20 -12 -13 13 22 29 17 -18 42 -20 -21 21 -23 38 -25 -26 48 47 33 -30 30 37 32 -34 -35 35 40 -38 -39 -40 -41 -42 -43 -44 -45 -46 -47 -48 -49 -50
leaf_value=-0.017723945255964723 0.016480289969080682 0.014393039960889014 -0.017629484734445804 0.017492300870725702 0.002035867135442473 0.016609495512151986 -0.012786693721778855 -0.0037644495108163562 0.016770244047191386 -0.0098497228422784969 0.017366419601590841 0.00071520406227649548 0.01638094665913007 0.017132104946805237 -0.0020501681382073963 0.015865501801960464 -0.0049272442568393596 0.0022438110246338502 -0.017684203129143414 0.018165310956898263 -0.018797274481262158 0.01085234658175744 -0.016687770264295673 0.015291599237992389 -0.013145887888649633 0.0087869581055712367 -0.018613868150797751 -0.014573282329880985 -0.0032114480255336078 0.017345474648715428 -0.0036609397200325394 -0.017977490393059837 -0.0099863587125240457 -0.0020035981152233188 0.010260963031901533 -0.018894346635889431 -0.0014110763191728371 0.0054155577158205648 -0.0020739014682180927 -0.0036613914701896979 -0.013399466005279729 -0.0061920079386281477 0.015073221101720487 -0.012270931166703502 -1.3786940614924737e-05 -0.017592481078568162 0.013538937821932997 0.01481511261305123 -0.00018206097181070507
leaf_weight=85.792329609394073 406.90348829329014 65.015367209911346 801.50234046578407 16372.814129903913 178.53263455629349 527.30118665099144 321.83120024204254 461.86641390621662 108.48450757563114 325.84286406636238 1461.0162269622087 406.24989655613899 833.4789967238903 83.888222426176071 197.04353886842728 432.09864178299904 582.62672431766987 226.2040623575449 16764.714369684458 62.067778527736664 85.371772333979607 417.32773143053055 54.080214589834213 444.37601867318153 824.67313301563263 145.84544044733047 7.7036777436733237 357.49969139695168 387.65744225680828 242.55805025994778 152.70067285001278 271.51318292319775 2032.3170744180679 95.666806057095528 53.358836606144905 68.978052228689194 298.02477575838566 793.00270839035511 296.80164563655853 499.80882176756859 318.37067030370235 854.46881361305714 42.474196940660477 55.586923643946648 123.29704259335995 663.88702045381069 18.803940251469612 1384.6550249904394 339.92681568861008
leaf_count=349 1650 262 3261 66609 716 2139 1298 1849 439 1309 5939 1627 3381 340 789 1754 2333 907 68229 250 343 1679 219 1798 3328 584 31 1445 1555 984 612 1100 8168 383 214 277 1195 3181 1188 2005 1279 3428 172 223 494 2698 76 5594 1365
internal_value=0 0.00847491 0.000138574 0.0132477 0.0154153 -0.00627261 -0.00475536 1.19602e-05 -0.0078129 -0.006694 0.0122467 0.00860408 0.016703 0.0107016 0.00972473 0.0171473 -0.0115999 0.00967939 -0.0175528 -0.00265858 -0.00706167 -0.00401205 -0.000185923 0.0114924 -0.00857644 -0.00758508 0.0134781 -0.00780332 -0.00906434 0.005442 0.00668439 -0.00983932 -0.0109281 -0.0119197 -0.00731106 -0.00676476 -0.00581854 0.00395 -0.00432629 -0.00231843 -0.00874538 -0.00714083 0.0014361 -0.00061941 0.00496021 -0.01547 -0.0113335 0.0146302 0.00251075
internal_weight=0 35123.4 12787.8 22335.7 19935.4 8360.77 2400.3 1537.94 7833.47 7031.97 4426.99 813.153 18397.4 1268.25 2965.98 17129.2 1587.15 756.364 16912.6 147.86 6923.49 2297.68 434.77 622.909 4625.8 3801.13 1580.67 915.033 3315.36 1385.3 1188.26 2927.7 2303.83 453.166 1880.36 1794.99 623.868 945.703 350.882 553.168 1241.82 923.447 324.265 281.791 188.312 1004.52 340.635 1392.36 485.772
internal_count=211048 142220 51554 90666 80984 33668 9682 6191 31529 28268 17886 3277 74793 5128 11947 69665 6405 3056 68828 599 27829 9225 1747 2514 18604 15276 6381 3677 13327 5566 4777 11772 9268 1828 7546 7203 2504 3793 1407 2219 4984 3705 1302 1130 756 4072 1374 5625 1949
is_linear=0
shrinkage=0.01


Tree=15
num_leaves=50
num_cat=0
split_feature=1 13 7 5 5 15 7 7 11 11 11 3 16 15 13 7 5 18 5 14 14 16 14 14 7 5 5 7 15 11 5 5 7 15 15 15 15 5 7 7 2 5 2 5 13 4 14 7 7
split_gain=75587.6 13747.3 9690.53 8697.05 3868.28 3048.78 2324.89 2176.46 823.832 729.041 575.052 504.745 471.119 414.606 390.951 417.658 374.257 312.893 446.637 282.944 1495.84 216.873 208.337 339.288 187.79 151.797 145.306 134.827 130.287 131.391 165.751 190.435 126.92 179.418 123.926 115.116 113.708 111.088 105.923 102.902 90.6755 89.1084 258.982 86.38 86.1774 83.7632 78.6998 78.5711 76.8823
threshold=-1.1675441585408646 0.28610672646216573 -0.65848861743199572 -0.41165669978903291 0.10379714504191043 -0.7740300581449453 -0.56856518197216799 -0.56856518197216799 -0.097817314622612075 -0.088108123333229885 -0.088484105211980038 -0.37987373240215522 -0.034408351093423016 -0.68173880231000961 -0.079069002291980925 -0.65436698338051635 -0.44980375779965032 -0.13179456807339759 -0.37727295417986434 -0.022160824000015095 -0.18361072357616334 -0.20867806911340428 -0.30565811312430397 -0.30176136016105859 0.96114016567250271 -0.39649824298214831 -0.26536782883674115 -0.56859121465212448 -0.49711334170111693 -0.095986471814599281 0.021631830632754454 -0.39649824298214831 -0.56856518197216799 -0.49711334170111693 -0.64253766164152171 1.5401579065767474 -0.7740300581449453 -0.41592342678172467 -0.65705638515052922 -0.56859121465212448 -0.5690289058309147 -0.1823621176250674 0.054759329432951136 -0.22678094155702636 0.73208921918199199 -0.27224520491664833 -0.30171427597425132 -0.56859121465212448 -0.65318649845448573
decision_type=2 2 2 2 2 2 2 2 2 2 2 2 2 2 2 2 2 2 2 2 2 2 2 2 2 2 2 2 2 2 2 2 2 2 2 2 2 2 2 2 2 2 2 2 2 2 2 2 2
left_child=17 3 10 7 14 27 21 11 -7 19 12 -2 25 -8 41 -16 34 18 -1 20 22 38 39 -24 35 37 -22 -4 29 30 31 -14 33 -25 -9 40 -17 -3 -6 -10 -15 -5 -43 -21 -41 -27 -34 -40 -44
right_child=1 2 5 4 6 8 13 16 9 -11 -12 -13 28 24 15 36 -18 -19 -20 43 26 -23 23 32 -26 45 -28 -29 -30 -31 -32 -33 46 -35 -36 -37 -38 -39 47 44 -42 42 48 -45 -46 -47 -48 -49 -50
leaf_value=-0.017588189614203609 0.016844185281670362 0.01539916361587893 -0.018776071919803957 0.017388954002594954 0.012058231904316454 -0.017517741558954487 0.015973724400350803 0.016448202415278512 -0.018777306896941105 0.013660013426038023 0.017212436621735258 0.00097712540762101043 -0.0051614695482034133 0.013550853217380796 0.016171195079406724 0.016925388717557829 -0.0052377415061983304 -0.017549529678879509 0.01780601138541598 -0.01321596030069881 -0.0031513256483647286 0.016912379608746055 -0.018023075944621013 -0.0074322749290160551 -0.011677345049190671 -0.018430157981516326 0.010434049504654517 0.015868392238758668 0.012812211508353034 0.0010208821697366597 -0.0033002764587522397 0.012907518436084536 -0.0083618493238771779 0.0039203287908629201 -0.015754350861567758 0.019769846194658113 -0.0003533410904198891 -0.0011591801593164657 -0.019851743505793235 0.00026428890918277545 -0.0052796883414226092 0.017288336833489244 0.015493756730030629 0.018019146202098445 -0.0058227258178261757 0.014665554747919439 -0.012104130920178759 0.0039604941241483211 -0.0037381247334320571
leaf_weight=85.835558906197548 379.93273958563805 62.467997446656227 11.446524754166601 16112.613017126918 250.44153365492821 801.07262670993805 81.22856293618679 12.094565704464911 53.257323265075684 169.75701925158501 1459.19048191607 424.46801266074181 68.41662223637104 26.721418797969818 492.72638039290905 43.58898788690567 569.05822695791721 16683.718015372753 60.981909483671188 800.30863906443119 93.05075392127037 745.21139748394489 415.28228706121445 686.510563403368 547.8299762904644 7.6903996318578711 511.55617460608482 603.14537282288074 202.16229842603207 639.25469975173473 112.22067388892174 395.56601080298424 1748.3453468084335 174.62138359248638 1002.1121655851603 20.230432406067848 301.68874098360538 115.29905413091183 15.224192738533018 289.36682042479515 594.48013207316399 361.15866141021252 26.563053280115128 8.9527886956930143 1185.3213072568178 1365.359805688262 828.13237951695919 154.27524451911449 95.586743846535683
leaf_count=350 1545 252 46 65707 1013 3267 329 49 214 688 5945 1700 274 108 2004 177 2279 68062 246 3234 374 3027 1682 2758 2212 31 2059 2447 814 2562 451 1598 7027 701 4070 81 1210 462 61 1160 2380 1469 108 36 4755 5524 3329 619 383
internal_value=0 0.00835964 0.000105511 0.0131094 0.0152763 -0.00621712 0.00347164 -0.00492316 -0.00791398 -0.00680932 0.0120723 0.00847142 0.00954555 -0.00588457 0.0169255 0.0102614 -0.0117285 -0.0174216 -0.0028869 -0.00732072 -0.00657038 0.0136737 -0.00824611 -0.00948525 -0.00737753 0.0133545 0.00834322 0.0152232 0.00537876 0.00414238 0.00760545 0.0102432 -0.00845384 -0.00513018 -0.0153703 -0.00370518 0.00182798 0.00465948 0.0079265 -0.00512149 -0.00446968 0.017262 0.0130312 -0.0128704 -0.00462832 0.0144802 -0.00956469 0.00182171 0.000444097
internal_weight=0 35065 12807.8 22257.2 19869.6 8380.13 2435.64 2387.67 7765.54 6964.46 4427.63 804.401 2968.44 1270.49 17433.9 838.004 1583.26 16830.5 146.817 6794.71 5985.44 1165.15 5380.84 3852.89 1189.26 1550.82 604.607 614.592 1417.62 1215.46 576.203 463.983 3437.61 861.132 1014.21 641.432 345.278 177.767 419.941 1527.95 621.202 16595.9 483.308 809.261 1474.69 1373.05 2576.48 169.499 122.15
internal_count=210879 142221 51690 90531 80888 33777 9830 9643 31284 28017 17913 3245 11968 5110 71058 3391 6398 68658 596 27329 24059 4720 21626 15497 4781 6269 2433 2493 5699 4885 2323 1872 13815 3459 4119 2569 1387 714 1693 6129 2488 67667 1960 3270 5915 5555 10356 680 491
is_linear=0
shrinkage=0.01


Tree=16
num_leaves=50
num_cat=0
split_feature=1 13 7 5 5 8 8 7 11 11 11 3 16 13 7 5 7 18 5 14 14 19 7 3 7 14 14 5 7 15 11 5 5 15 8 8 8 15 5 16 2 5 2 5 8 16 11 19 7
split_gain=74254.3 13511.7 9510.11 8546.91 3807.22 3195.15 2352.98 2135.9 787.768 639.487 567.221 496.429 463.278 385.76 410.876 368.654 333.46 307.65 438.654 286.123 1579.86 222.83 193.839 193.824 183.233 162.265 269.656 149.318 130.68 127.876 128.965 162.682 186.94 121.701 115.409 114.834 111.914 111.704 109.06 105.746 95.4381 87.9646 254.78 87.6895 85.6709 83.6945 82.2285 79.8965 75.48
threshold=-1.1675441585408646 0.28610672646216573 -0.65848861743199572 -0.41165669978903291 0.10379714504191043 -0.74671961479657745 -0.65480109414829224 -0.56856518197216799 -0.097181814097205527 -0.088108123333229885 -0.088484105211980038 -0.37987373240215522 -0.034408351093423016 -0.079069002291980925 -0.65436698338051635 -0.44980375779965032 -0.56856518197216799 -0.13179456807339759 -0.37727295417986434 -0.03374245928004619 -0.18361072357616334 -0.34881977374541545 -0.56859121465212448 0.26592939991206371 0.69034390147300906 -0.30565811312430397 -0.30176136016105859 -0.39649824298214831 -0.47863480249865747 -0.49711334170111693 -0.095986471814599281 0.021631830632754454 -0.39649824298214831 -0.64253766164152171 0.63287658021778126 -0.74671961479657745 -0.65488763246774573 -0.7740300581449453 -0.41592342678172467 -0.14243408942136562 -0.5690289058309147 -0.1823621176250674 0.054759329432951136 -0.22678094155702636 -0.65488763246774573 -0.10856093254019031 -0.097817314622612075 1.0000000180025095e-35 -0.65318649845448573
decision_type=2 2 2 2 2 2 2 2 2 2 2 2 2 2 2 2 2 2 2 2 2 2 2 2 2 2 2 2 2 2 2 2 2 2 2 2 2 2 2 2 2 2 2 2 2 2 2 2 2
left_child=17 3 10 7 13 22 23 11 -7 19 12 -2 27 41 -15 33 -8 18 -1 20 21 25 -4 -6 34 45 -27 38 -23 30 31 32 -14 -9 40 -25 -32 -16 -3 -28 -18 -5 -43 47 -40 -10 -29 -21 -44
right_child=1 2 5 4 6 8 16 15 9 -11 -12 -13 29 14 37 -17 24 -19 -20 43 -22 28 -24 35 -26 26 39 46 -30 -31 36 -33 -34 -35 -36 -37 -38 -39 44 -41 -42 42 48 -45 -46 -47 -48 -49 -50
leaf_value=-0.017455943196072524 0.0167121910347591 0.015266285084567448 -0.018734024419026649 0.017257955795201518 0.017019089232726721 -0.01732549061620603 0.010074438993104977 0.016313439476549545 0.00076243026853219683 0.013451750711996863 0.017081358297549604 0.00096735387522145651 -0.0051098289066616757 0.016043836054072027 0.016791880410541485 -0.0051862495655476811 0.013623817397171759 -0.017418194612600718 0.017653375700451286 -0.013453801842867577 0.0093093978891586743 0.0035636241924817697 0.015557103613474415 0.013288154768906308 -0.011544728279740298 -0.017864045188520188 -0.0034030946988967397 -0.018276324630689258 -0.0061578806434912274 0.012695394830650172 -0.00092150508690198309 -0.0032670154727291777 0.012794175013081275 -0.015627777324501789 0.019691229383107415 0.0024175805280326887 0.010071537916456657 -0.00034980573527337508 -0.0073269010651913083 -0.0097115174226976731 -0.0053037418936103158 0.017154438814307379 0.01537002424940547 0.017882708785949632 0.010876777789987009 -0.0069234020738253819 0.01454203871254316 0.021169193933132383 -0.0037007413696750753
leaf_weight=85.622057721018791 379.10826320946217 62.382032468914986 16.908018365502357 16072.766988411546 738.24779970943928 809.00247721374035 121.28559049963951 12.072641834616659 161.83483448624611 151.09278976917267 1455.7015237212181 424.46813115477562 68.416967362165451 491.67660577595234 43.496658310294151 568.96159300208092 27.918575778603554 16641.629302918911 60.894514068961143 818.93676260113716 566.06438757479191 223.92997318506241 658.20905530452728 212.42460331320763 551.73174722492695 397.10075101256371 294.03006114065647 7.6776423305273047 361.4929243773222 201.98315960168839 526.88149601221085 112.22950275242329 395.08203485608101 1000.1361321210861 20.490481778979301 179.11825911700726 112.3563988506794 301.69042022526264 76.161110997200012 2759.7074160575867 581.65835982561111 360.34196190536022 26.509391695261002 9.1939380615949613 39.139264851808548 1137.7710765302181 1363.1980180293322 6.7196630388498297 95.586797192692757
leaf_count=350 1545 252 68 65707 3007 3307 488 49 649 613 5945 1700 274 2004 177 2279 113 68062 246 3314 2279 898 2674 862 2230 1612 1181 31 1451 814 2111 451 1598 4070 82 719 451 1210 305 11101 2329 1469 108 37 157 4566 5524 27 383
internal_value=0 0.00829084 0.00010459 0.0130063 0.0151578 -0.00616096 0.00344088 -0.00487993 -0.00799059 -0.00689418 0.011969 0.00839539 0.0094595 0.0167968 0.0101728 -0.0116267 -0.00571631 -0.0172912 -0.00286398 -0.0073505 -0.0065754 -0.00826056 0.0146983 0.0140027 -0.00733688 -0.00897795 -0.0101121 0.0132403 -0.00243931 0.00532752 0.00410264 0.00753566 0.0101514 -0.0152468 -0.00365219 0.00831522 0.0010107 0.0018102 0.00461512 -0.00910411 -0.00443686 0.0171317 0.0129243 -0.01283 -0.00114758 -0.00596632 0.0143582 -0.013172 0.000439883
internal_weight=0 35002.9 12793.2 22209.7 19824.9 8371.99 2432.88 2384.75 7696.88 6887.87 4421.21 803.576 2965.51 17392.1 836.864 1581.17 1303.08 16788.1 146.517 6736.78 5901.93 5335.87 675.117 1129.79 1181.8 4750.44 3450.84 1548.56 585.423 1416.95 1214.97 575.729 463.499 1012.21 630.067 391.543 639.238 345.187 177.682 3053.74 609.577 16555.2 482.438 834.85 115.3 1299.61 1370.88 825.656 122.096
internal_count=210879 142221 51690 90531 80888 33777 9830 9643 31035 27728 17913 3245 11968 71058 3391 6398 5242 68658 596 27115 23737 21458 2742 4588 4754 19109 13894 6269 2349 5699 4885 2323 1872 4119 2524 1581 2562 1387 714 12282 2442 67667 1960 3378 462 5215 5555 3341 491
is_linear=0
shrinkage=0.01


Tree=17
num_leaves=50
num_cat=0
split_feature=1 13 8 6 6 8 11 1 14 18 11 15 0 15 16 18 16 2 14 14 8 6 15 8 6 6 6 8 0 14 6 6 19 16 6 6 17 6 8 16 14 6 6 14 11 6 19 8 16
split_gain=72953.4 13281.9 9307.41 7779.69 3194.77 4829.14 1300.17 1189.23 1590.38 1094.76 668.618 524.153 485.634 421.397 396.749 302.533 419.517 277.295 271.788 413.685 263.462 258.882 236.274 223.899 194.784 134.109 127.522 125.196 118.543 118.145 115.438 179.24 114.511 113.972 110.787 337.548 100.132 98.2687 96.654 96.444 95.7296 90.3037 86.9436 85.8764 83.9463 72.8413 72.7262 72.4081 71.8375
threshold=-1.1675441585408646 0.28610672646216573 -0.74671961479657745 -0.048729810288006985 -0.048182079775462051 -0.65480109414829224 -0.088108123333229885 0.71356618928481397 -0.18690329091502336 -0.12875584096877532 -0.088484105211980038 0.056962136107587373 3.7035475203218686 -0.7740300581449453 -0.034408351093423016 -0.13179456807339759 -0.20867873792892447 -0.56905486950628059 -0.30565811312430397 -0.30176136016105859 -0.74671961479657745 -0.04608831993326664 -0.7740300581449453 -0.65488763246774573 -0.044799119013108693 -0.048735580551166773 -0.042945288780592367 -0.65488763246774573 -0.29947993590614236 -0.03374245928004619 -0.04608846584794473 -0.046411052957863241 -0.17733148779785743 -0.20867806911340428 -0.04608846584794473 -0.046068460939253986 0.27199876012230795 -0.044338692688095732 -0.65488763246774573 -0.14995790753552649 -0.22926135266051786 -0.044292401476378397 -0.044991934518647546 -0.30171427597425132 -0.097817314622612075 -0.043625366806756057 1.0000000180025095e-35 -0.56335556885459914 -0.10587772234587438
decision_type=2 2 2 2 2 2 2 2 2 2 2 2 2 2 2 2 2 2 2 2 2 2 2 2 2 2 2 2 2 2 2 2 2 2 2 2 2 2 2 2 2 2 2 2 2 2 2 2 2
left_child=15 3 10 12 9 20 7 24 13 -5 14 17 22 38 48 16 -1 -7 27 -20 -6 30 -2 -22 -4 -24 -13 -15 29 -26 31 -16 39 -25 -29 -36 -35 43 -9 -21 47 -42 -41 -23 -39 -10 -31 -19 -3
right_child=1 2 6 4 5 11 -8 8 45 -11 -12 26 -14 18 21 -17 -18 40 19 32 23 37 25 33 28 -27 -28 34 -30 46 -32 -33 -34 36 35 -37 -38 44 -40 42 41 -43 -44 -45 -46 -47 -48 -49 -50
leaf_value=-0.017332071089766688 0.0084401759720557686 0.015533461231148555 0.017331008395146955 0.017178707436116662 0.016604399404023373 0.013695516050731778 0.014882671559171444 -0.01943686220362251 -0.00053687852630474281 -0.016755236477346839 0.017041485647637106 -0.011618741682823286 -0.016747809698699739 -0.018650767828385272 0.017399878398890324 -0.017290102478659426 0.016961354546429924 -0.019831496500121264 -0.017754751831204504 -0.00044166686663039316 -0.019284691394683643 0.0062282232281451883 -0.010666877458479093 0.0036442035674648476 0.018625594276493761 -0.0034275031029053237 -0.0023232402454572742 -0.0073342354400897126 -0.017320821143147407 -0.012677588758135509 0.017534991243051253 -0.0074045779733030795 0.0056285975528310439 0.015940622174438424 0.015922743763053426 -0.0030770606759015625 0.0050185747669171032 -0.018191132202774796 0.0098852741743140297 -0.0094023924377764408 -0.0044201766799415194 0.015624888526548713 -0.0061695714468495855 -0.0050622204211794395 0.0053457263622456938 0.011013943294567492 0.020965503967980782 -0.0021034733956262438 0.010818261340956078
